39 128
1 0.017283 1.004004 0.047760 0.025768 -0.039584 -0.029459 0.412063 -0.150532 -0.097205 -0.002755 0.469237 -0.029376 0.520240 0.828242 0.214050 -0.534413 -0.279564 0.117057 0.088506 -0.021771 -0.262608 0.257858 -0.546213 0.003028 0.194750 0.189385 0.250999 -0.355404 0.135853 -0.109201 0.177091 -0.076080 -0.059377 -0.090662 0.188540 -0.149955 -0.163611 -0.049591 0.138574 0.156126 0.069683 0.248508 0.550172 -0.636200 0.636194 -0.377099 -0.389367 -0.062294 -0.382605 -0.177163 -0.507859 -0.234739 -0.312959 0.350209 0.136624 0.912390 -0.545062 -0.230433 -0.027923 0.016528 0.400800 -1.099781 -0.292536 0.581618 0.431411 0.054076 -0.725310 -0.012033 0.203850 -0.367216 -0.005378 0.611614 0.444460 0.306643 -0.692253 -0.165267 0.903426 -0.045009 -0.111897 -0.431980 0.359432 -0.391860 0.174914 0.462478 0.629841 -0.729477 -0.136736 -0.394943 -0.057287 -0.754678 0.345871 -0.005204 0.601304 0.197569 -0.201113 0.125501 0.134259 0.367389 -0.204962 0.121729 0.506697 0.141427 -0.137840 0.393962 -0.066773 -0.401273 -0.674329 0.286665 -0.312702 -0.371968 -0.410337 0.191903 0.127129 0.346529 -0.261357 0.626821 -0.341050 -0.011866 -0.403228 0.015929 -0.316898 -0.173161 0.569298 0.071318 0.057193 0.124316 -0.358077 0.573148 
3 -0.078640 0.215555 -0.407131 -0.320607 0.562320 -0.208425 0.244104 -0.138817 -0.397124 0.072025 0.396667 -0.277807 -0.354015 0.194931 0.500924 -0.627725 0.106812 -0.047656 -0.605895 -0.003298 -0.093079 0.333817 -0.119218 0.139343 0.237156 -0.537808 0.037706 -0.251966 -0.541121 -0.093369 -0.136596 0.127173 -0.550762 0.044808 0.236926 -0.038902 -0.325153 -0.250383 0.227189 -0.352641 -0.009438 -0.391214 -0.047955 0.117001 0.230444 -0.218332 -0.252689 -0.164116 -0.873558 -0.082938 -0.123820 0.032499 0.157946 -0.224824 0.131936 0.509977 -0.335340 -0.156371 0.051689 0.059544 -0.018620 -0.253089 -0.527368 0.070754 0.446249 0.286468 0.011849 -0.516547 -0.406075 -0.353970 0.393880 0.127057 -0.118973 0.175007 -0.329928 -0.277567 0.693574 0.181437 0.144976 -0.178981 -0.499547 0.242252 0.003840 -0.124191 0.321356 -0.292383 -0.328075 0.104174 0.130303 0.335541 -0.132401 0.206060 -0.085304 0.309259 0.334848 0.681207 0.554519 0.194249 0.353982 -0.120617 -0.011917 0.219854 -0.125273 -0.275964 -0.400647 -0.623406 -0.277893 0.527241 0.223959 -0.133149 0.284855 0.104628 0.194814 0.349696 0.549103 -0.143621 -0.052290 0.005208 -0.084124 0.335367 -0.193057 -0.185433 -0.329969 0.088426 -0.058622 0.471530 0.386927 0.277886 
4 -0.005395 -0.180219 -0.081176 0.057033 0.361795 -0.269922 0.052280 -0.036838 -0.185649 -0.090529 -0.009641 -0.054161 -0.276936 0.023076 0.149765 -0.049319 0.032667 -0.085784 -0.187579 0.158237 -0.166605 0.409141 -0.310679 -0.303019 0.029743 -0.221223 0.028812 0.295929 0.152958 0.185786 0.121020 0.439660 -0.748059 0.150333 0.035033 -0.183519 0.220918 -0.296834 0.375456 -0.040180 -0.246759 -0.256612 0.257745 0.325168 0.168600 -0.011042 -0.335930 -0.506462 -0.170504 -0.121250 0.356867 -0.414779 0.339700 -0.446824 0.435222 -0.005038 -0.590787 -0.140166 0.078364 -0.034592 0.588595 0.152046 -0.289070 0.656300 0.658213 -0.216850 0.631966 -0.277472 -0.199371 -0.494548 -0.715886 0.165361 -0.266011 0.519264 -0.611345 0.299250 0.114363 -0.146148 0.178592 0.226890 0.189303 -0.212752 0.335597 -0.049048 0.790990 0.341689 -0.427629 -0.181424 -0.402723 0.017102 -0.038387 0.492140 0.538389 0.361224 0.093539 0.630001 0.328451 -0.022386 0.318355 -0.446725 0.509374 -0.400926 -0.434795 -0.048858 -0.221994 -0.693028 0.232816 0.262593 0.661617 0.248198 -0.070263 -0.101394 0.348872 0.303312 0.231888 0.361235 -0.327378 -0.225739 0.085657 0.205968 -0.440127 -0.088075 -0.239842 0.169639 0.032123 0.173640 0.068932 0.626659 
9 -0.014580 0.467512 -0.209803 0.636757 -0.269732 -0.132168 0.494069 -0.563321 0.138540 -0.826974 -0.154806 0.270433 0.063603 0.439294 0.300580 -0.353928 0.104713 0.007037 -0.085178 0.240457 -0.456400 0.192990 -0.476913 0.045042 -0.280925 0.599278 0.160018 0.217507 -0.282091 0.039014 0.032661 0.673984 -0.573288 0.157606 -0.252957 0.131504 0.026629 -0.424494 -0.198542 -0.243146 -0.056899 0.208602 -0.083912 -0.183891 0.078553 0.887422 0.137571 -0.491902 0.240309 0.221318 0.100307 0.071941 0.356640 -0.309850 -0.195833 0.032600 -0.077457 -0.010955 0.233076 -0.055382 0.287660 -0.179361 0.239494 0.691348 0.745398 0.134127 0.095638 -0.561173 -0.036168 0.135350 -0.371997 -0.200431 0.032379 -0.088130 -0.454073 -0.338895 -0.269706 -0.329529 0.150590 0.084937 0.066364 -0.764838 0.447159 0.595074 0.395630 0.005432 -0.043070 -0.220792 0.218899 -0.278809 0.723855 0.136716 0.238856 0.247946 0.023671 -0.136434 -0.041086 -0.085942 0.103034 -0.522033 0.583494 0.422846 -0.118857 0.345872 -0.160672 0.245627 0.562391 -0.215501 -0.102562 -0.297916 -0.363872 -0.045316 0.081487 -0.125997 -0.086293 -0.205619 -1.011680 0.148705 -0.394492 0.557504 -0.390928 -0.182479 0.492037 0.115264 -0.239134 0.154261 0.527780 0.577881 
11 0.294033 0.694121 0.227295 -0.169807 0.015095 -0.074108 0.117565 -0.470102 -0.122620 -0.168185 0.062531 -0.185457 0.033534 0.295561 0.135206 -0.532849 0.023156 -0.028215 0.086654 -0.014140 -0.345995 -0.402575 0.259462 0.198367 -0.221409 -0.692708 -0.169104 -0.078938 -0.451637 0.034443 0.286733 -0.037941 -0.354381 0.005163 0.259044 -0.238273 0.275374 -0.524403 0.312114 -0.248057 0.367050 0.081123 -0.272356 -0.037033 0.296521 0.103667 -0.469310 -0.095804 -0.142414 -0.090602 -0.368510 0.217534 0.383031 -0.326009 0.185784 -0.036296 -0.286802 -0.253755 -0.092046 -0.104635 0.319629 -0.137639 -0.161889 0.983708 0.108231 0.258903 -0.212603 -0.417742 -0.499518 -0.264355 -0.306199 -0.118484 -0.378023 0.418668 -0.285344 0.109447 0.164093 -0.339415 0.038426 -0.201350 -0.394979 0.005441 0.453109 -0.437353 0.505122 -0.162277 -0.230638 -0.507388 0.030978 0.178398 0.304674 0.198382 0.121990 0.242537 0.335677 0.022289 0.525385 0.281732 -0.074924 -0.589044 0.066515 0.107204 -0.190024 -0.019604 0.246991 -0.535389 0.042049 0.551356 -0.168661 -0.197139 0.458838 0.279646 0.435981 0.335463 -0.270190 -0.109182 0.040726 -0.545106 0.212581 -0.084649 -0.110206 -0.310899 -0.044714 0.375135 0.439572 0.316865 -0.115184 0.598456 
2 -0.025819 0.152478 0.185621 -0.335526 0.142010 -0.138373 -0.121582 -0.239433 0.065747 0.009558 0.305303 0.511764 0.058201 0.676540 0.214898 -0.838027 -0.104364 -0.171851 -0.027747 -0.070224 -0.217203 0.494713 -0.594466 -0.250977 0.470307 -0.063191 0.093513 0.024440 -0.052870 -0.728520 0.022993 0.124894 -0.143148 -0.103362 0.128140 -0.106366 -0.312785 0.167228 -0.005582 -0.103693 0.065141 0.005213 0.447225 -0.249158 0.618636 -0.216729 0.057530 -0.061539 -0.396294 0.391602 -0.529102 -0.301307 0.782227 -0.203441 0.437188 0.410692 -0.421947 -0.018089 0.152507 0.199562 0.389700 -0.661818 -0.341336 0.528760 0.324744 -0.271711 -0.528954 -0.432359 -0.008704 -0.734787 0.043754 0.195175 -0.022716 0.737323 -0.500714 -0.196765 0.709856 0.051923 0.061541 -0.650215 0.505185 -0.089389 0.076364 0.019002 0.793253 -0.150542 -0.399294 -0.676875 -0.461561 -0.302387 0.153740 0.293033 0.265774 0.280386 0.143804 0.775250 -0.059115 -0.503417 0.433465 -0.075633 0.368511 -0.024679 -0.418871 -0.056273 0.260110 -0.572530 -0.026380 -0.005536 -0.017075 0.034104 -0.226131 -0.073603 0.054424 -0.170067 -0.363018 -0.079919 0.009660 -0.332932 -0.346113 0.354845 -0.144139 -0.059636 0.516825 -0.062872 0.124825 -0.187003 0.077246 0.391925 
12 -0.046116 -0.058908 0.110257 0.010747 0.136088 -0.252153 0.022423 0.121392 -0.145596 -0.165048 -0.077335 0.429280 -0.172839 0.236688 0.222299 -0.603295 0.237050 -0.290716 -0.230193 -0.311863 -0.373148 -0.142671 -0.165845 -0.406735 0.067022 -0.342829 0.573891 0.163820 0.187172 -0.150895 -0.364781 0.101971 -0.585126 0.310197 0.183178 0.142106 -0.388740 0.189557 0.094486 -0.016533 -0.255235 -0.009333 0.113474 0.411119 0.226899 0.268895 -0.191311 -0.028132 0.276338 -0.198726 -0.095486 -0.445858 0.099802 -0.319933 0.372545 -0.345931 0.360011 0.156277 -0.271569 -0.342633 0.279651 -0.704596 0.427410 0.456438 -0.176994 0.193390 0.237127 0.160427 0.393737 -0.324509 -0.259636 0.405779 0.043996 0.216595 -0.209754 -0.297460 0.124688 -0.263617 0.511968 0.155718 -0.151296 0.160864 0.030723 -0.308361 -0.506769 0.003585 -0.571664 -0.303505 -0.208598 -0.520638 0.514379 0.155893 0.357201 0.106147 0.300111 0.441646 0.022534 0.413125 0.152570 -0.374943 0.216981 -0.163074 -0.161895 -0.202336 -0.319293 -0.589734 -0.739469 0.422509 0.086749 -0.430101 0.573067 0.158071 0.271671 0.384451 -0.111390 0.233809 -0.683392 0.015545 0.067182 -0.407823 -0.202802 0.373115 0.519678 0.367107 -0.513314 0.003598 -0.303009 0.139528 
16 0.185737 0.030900 0.019628 0.105644 0.167109 0.087161 0.191077 0.091983 0.186269 0.025038 0.301312 -0.267791 0.341902 0.367941 -0.199129 -0.036578 0.237974 -0.045695 0.353568 -0.156944 0.158515 -0.105762 -0.292260 0.384516 -0.098985 0.074851 0.056831 -0.039419 -0.028663 -0.074739 0.102544 0.210116 0.413060 0.325214 0.215398 -0.016509 -0.184627 -0.025499 0.478594 0.404360 0.447348 -0.267621 -0.003329 -0.313996 0.159988 -0.147210 -0.267958 -0.108507 -0.515184 -0.611413 0.081931 -0.492209 -0.661907 -0.325813 -0.465125 0.466063 -0.280449 0.384926 -0.136250 0.265381 0.048446 -0.356340 -0.044585 0.119430 0.010893 0.130987 -0.725484 0.030470 0.010367 0.123221 -0.141393 0.328545 0.137536 -0.078816 -0.248907 0.084386 0.113015 -0.045337 0.192529 0.037249 0.048139 0.252668 0.051855 -0.312356 0.267712 -0.167476 0.086512 -0.277156 0.111723 -0.101806 -0.081030 0.035357 -0.059169 0.108203 0.010464 -0.124107 -0.171235 0.545386 -0.304421 0.103820 0.196038 -0.034409 -0.086730 0.106696 -0.104122 -0.394672 -0.438394 -0.002378 0.178226 0.179789 0.425451 -0.237260 0.106074 0.304422 0.096493 0.385508 0.271876 0.130937 -0.118689 -0.184625 -0.138456 0.147437 -0.606987 -0.260757 -0.314566 0.318145 -0.032652 0.302208 
6 0.097923 -0.378795 -0.063153 -0.105807 0.096428 -0.015179 -0.140390 0.244170 0.235080 0.221192 -0.227670 0.149325 -0.195966 0.194987 0.074605 -0.122686 0.099722 -0.027132 0.365703 0.285630 -0.072554 0.400268 -0.501954 -0.351664 0.065655 -0.377653 0.191056 0.090725 0.254864 0.138043 -0.011365 0.418077 -0.465774 0.031658 -0.287691 -0.008154 0.030689 0.001412 0.097512 0.087271 -0.370571 0.018956 0.172318 0.051170 0.288809 -0.051240 -0.112527 -0.208220 -0.301288 0.367176 -0.195225 -0.369716 0.402380 -0.519738 0.217013 0.386336 -0.457828 0.296967 -0.010594 -0.227661 0.664675 -0.699790 -0.042166 0.487593 0.348873 -0.543599 0.376683 -0.263533 -0.191310 -0.392259 -0.342304 0.353092 -0.407073 0.477470 -0.148948 -0.144221 0.258599 0.024175 0.199568 -0.428955 0.437687 -0.513485 -0.015356 -0.003105 0.700618 0.350123 -0.330114 -0.351528 -0.353796 -0.069065 -0.196130 0.143852 0.397884 0.634149 -0.098355 0.666949 -0.148709 -0.543555 0.499641 0.106688 0.545235 -0.261991 -0.313889 0.240026 -0.113961 -0.956331 0.181367 0.313330 0.741848 0.053582 0.253993 -0.013856 0.406270 0.506596 0.061338 0.256882 0.212871 -0.293843 -0.056756 0.223341 0.065213 0.383733 -0.184614 0.276406 -0.069311 0.041521 0.037318 0.334671 
7 -0.125171 0.695786 -0.135099 0.185940 -0.838841 0.049153 0.764355 -0.100271 -0.227356 -0.623901 0.386820 -0.027283 -0.094246 0.102987 0.288742 -0.182501 -0.051118 0.406724 -0.238604 0.219348 -0.456021 -0.092092 -0.030473 -0.189106 0.025816 -0.342687 0.299736 0.154668 0.289537 -0.187762 0.057966 -0.164600 -0.229743 0.033813 -0.197502 -0.224949 -0.108962 -0.525375 -0.227954 -0.029813 -0.295846 0.791702 0.195720 -0.733476 0.052419 -0.093329 -0.097960 -0.203039 -0.030909 0.160756 -0.151826 0.054836 0.157851 -0.002549 -0.045784 0.814047 -0.083106 -0.500878 0.392998 0.594748 0.450976 -0.712775 -0.416629 0.248263 0.596106 -0.091897 0.132520 0.201947 0.385940 -0.002563 -0.157111 -0.051779 0.084665 0.023913 -0.058583 -0.663287 -0.000810 -0.097451 0.099813 -0.213697 0.581277 -0.494938 0.229604 0.508522 0.817038 -0.104215 -0.435563 -0.349473 -0.099691 -0.938473 0.339183 -0.016336 0.154748 0.615193 -0.058820 0.024701 -0.148142 -0.278230 -0.376548 0.074628 0.405908 0.352711 0.328804 0.611654 -0.473531 -0.039912 -0.223663 0.282887 -0.341009 -0.290237 -0.163098 0.312727 0.368595 0.328185 -0.484872 0.243164 -0.044505 -0.014392 -0.262583 0.353239 -0.567694 0.095229 0.312707 0.106928 -0.011553 0.029457 -0.526356 0.419086 
8 -0.314090 0.410131 0.152713 0.444308 -0.411268 -0.001877 0.022164 -0.544595 0.018592 -0.461059 -0.233100 1.039087 -0.192365 0.568894 0.091820 -0.926149 0.391348 -0.138070 -0.124408 0.124175 -0.147875 0.215486 -0.162297 -0.931922 0.643612 0.195739 0.821545 0.377667 0.742603 -0.140885 -0.383953 -0.128578 -0.211075 0.305043 -0.161544 0.129808 -0.045148 0.058226 0.268945 -0.503642 -0.163656 0.134365 0.323526 -0.072083 -0.268051 0.047359 -0.077220 -0.184109 0.550095 0.656025 -0.203561 -0.424273 0.654574 0.186851 0.676557 0.182398 0.133989 -0.022581 0.158755 0.030157 0.363421 -0.709143 0.185390 0.965738 -0.075383 -0.420020 0.212734 0.050584 0.261272 -0.329867 -0.376165 0.052811 0.134249 0.447533 -0.139567 -0.086975 0.399053 -0.075865 0.000683 -0.446626 0.450906 -0.091420 0.402927 0.103787 -0.070877 0.115161 -0.373787 -0.813483 -0.762136 -0.729941 0.369854 -0.112292 0.853963 0.530525 0.201712 0.086201 -0.362784 -0.056327 -0.036823 -0.155898 0.678121 -0.712653 -0.428463 0.246838 0.713934 -0.233351 0.287265 0.406367 -0.158040 0.190277 0.305901 0.014690 0.235843 0.209254 -0.853374 -0.126149 -0.545683 -0.349377 0.113616 -0.221775 -0.182545 0.161986 0.704874 -0.144293 0.379387 0.118217 -0.372939 0.628950 
13 0.189392 0.258106 0.013245 -0.130302 -0.243945 -0.048389 0.061863 -0.113383 0.001368 -0.409476 0.352366 0.108232 -0.306813 0.143896 -0.213036 -0.515929 0.240850 0.227547 0.015748 -0.126398 -0.440859 0.159856 -0.145697 -0.265884 -0.039791 -0.335891 0.089516 0.129144 0.227292 -0.731115 0.091559 -0.123123 0.082231 -0.031354 -0.123062 0.004339 -0.752050 0.042222 -0.421217 0.060258 0.252667 -0.044153 0.036501 -0.527804 0.679717 0.308277 0.161594 0.157480 -0.409193 0.019988 -0.632167 -0.155385 0.490956 -0.620649 -0.098956 0.127079 0.087089 0.181117 0.224426 0.159522 0.195146 -0.335779 -0.388094 -0.172651 -0.051121 0.016262 -0.668249 -0.180116 0.086332 -0.314187 0.199588 0.368164 -0.294968 -0.029481 -0.370236 -0.365090 0.142824 -0.470726 0.436408 -0.343007 0.672562 0.198776 -0.168939 0.137075 0.553345 -0.251899 -0.680269 -0.547929 -0.130229 -0.573085 0.099760 0.019914 -0.401501 0.413758 -0.056466 0.577185 -0.421161 -0.708232 0.174086 -0.177306 -0.174194 0.286468 -0.278939 -0.114503 -0.564885 -0.350705 -0.482460 -0.190813 0.214390 -0.540644 0.086071 0.234536 0.016427 -0.437587 -0.537271 0.027325 0.258573 -0.312933 -0.244460 0.498237 -0.499635 0.175105 0.545702 0.351212 0.057603 -0.502078 -0.418017 0.387920 
15 0.115239 0.133940 -0.064031 0.214715 -0.425005 0.380769 -0.039761 0.128217 -0.031573 -0.275349 -0.314329 0.152516 -0.165650 -0.068033 -0.301128 -0.086388 0.162165 -0.274538 -0.149274 0.101471 0.038600 0.916312 0.151399 -0.309667 0.275625 0.178706 0.010859 0.028768 0.786493 0.390241 0.137759 -0.213752 0.154721 0.017519 -0.018299 -0.331638 -0.181981 -0.269994 0.006208 -0.436901 -0.130397 0.336283 -0.021629 -0.347219 0.116852 -0.308269 -0.271178 -0.247817 0.087030 0.607774 -0.221616 0.009573 0.457752 0.592947 0.743466 -0.020527 -0.006739 -0.078341 0.029113 -0.193175 0.980770 -0.478072 -0.134623 0.578396 -0.039326 -0.556130 0.383427 -0.236878 0.125443 -0.087901 -0.089982 0.622192 -0.270327 0.236497 -0.281372 0.092039 0.394323 -0.066376 -0.140281 -0.145963 0.028676 -0.803746 -0.171983 0.243118 0.023563 -0.493691 0.030370 -0.140085 -0.437668 -0.044777 0.081574 0.065488 0.592441 0.798654 -0.079303 -0.130500 -0.086973 -0.753925 0.159615 -0.228064 0.806929 -0.924567 -0.592334 0.395422 0.390492 -0.361281 0.407623 0.607331 0.471994 -0.008514 0.187321 0.566884 -0.030754 0.681385 -0.646086 0.795437 0.166600 -0.104179 -0.026721 -0.062670 0.272659 0.341176 0.396594 0.260340 0.685099 -0.450731 -0.133404 0.414614 
19 0.091246 0.076710 0.586443 -0.012640 0.043280 0.075725 0.051006 -0.258602 0.410804 -0.166238 -0.065018 0.186248 0.216775 0.381089 -0.172534 -0.424837 0.431198 0.229144 -0.226839 0.077247 -0.292678 -0.006740 -0.151778 -0.027005 0.209215 0.330977 0.356069 0.216030 0.064365 -0.333063 0.076144 -0.270622 0.103001 0.424500 -0.283561 0.156766 -0.322547 0.200536 0.164733 -0.198771 0.441450 -0.149238 0.424185 -0.591406 0.109963 0.169700 -0.137887 -0.171735 0.156898 0.231713 -0.134224 -0.423379 0.042959 -0.002632 -0.069092 0.089500 -0.103721 0.134006 -0.019861 0.246897 -0.080365 0.333540 0.334585 0.069722 0.013201 0.223815 -0.587293 -0.798642 0.199140 -0.087705 0.231305 -0.142926 0.452845 0.124043 -0.041094 0.255930 0.231547 -0.258134 0.161743 -0.527071 0.435898 0.524099 -0.238735 0.398010 -0.008630 -0.009156 -0.094935 -0.658553 -0.041624 -0.159861 0.403048 -0.054577 0.146722 0.097505 -0.124463 0.424037 -0.292709 -0.138443 0.278587 0.180491 0.060664 -0.244795 -0.303875 -0.278714 0.112970 0.267420 0.336393 -0.524999 -0.156352 0.012317 -0.216241 -0.351919 -0.188518 -0.388625 -0.653903 -0.535674 -0.257090 -0.075290 0.278043 0.118699 -0.173589 -0.106597 -0.143400 -0.385486 -0.089172 0.033183 0.119734 0.760401 
14 -0.389383 0.620965 0.065535 -0.169625 0.144436 0.144902 -0.059660 -0.061771 -0.150814 0.243544 0.545915 -0.231900 0.595569 0.387744 0.505965 -0.322537 -0.285083 0.154923 -0.101322 0.347526 -0.061179 0.318531 -0.371551 -0.020574 0.729504 0.214522 0.674814 -0.394138 0.130846 0.211488 -0.501356 -0.240392 0.170542 0.037185 0.356787 0.033653 0.225468 0.158415 0.106545 0.290090 -0.324862 -0.081393 0.726608 0.066397 0.130211 -0.666719 -0.007101 0.176886 -0.137481 -0.124244 -0.089381 -0.055881 -0.420779 0.740327 0.510733 0.342082 -0.555349 0.086479 -0.250283 -0.443328 0.468673 -0.781735 0.111454 -0.112018 0.391302 -0.199386 -0.024271 -0.197161 0.435540 -0.634727 -0.144973 0.539714 0.660935 0.014179 -0.313396 -0.408029 1.009997 0.121527 -0.238329 0.142361 0.129218 -0.020324 0.307661 -0.138774 0.154782 -0.535682 -0.066221 0.550586 0.325742 -0.259536 0.402225 -0.292068 0.374980 -0.336601 -0.230936 0.330641 0.032659 0.257248 0.255120 0.587701 0.035644 -0.081564 -0.153182 -0.495094 0.352366 0.043220 -0.798024 0.294207 -0.202014 -0.067760 -0.643661 0.214627 0.073035 0.660432 -0.210607 0.737877 -0.517910 0.042251 0.307248 -0.401441 0.144070 0.107994 0.437498 0.231988 -0.292230 -0.020682 -0.133632 0.025939 
5 -0.388952 0.334369 -0.332331 -0.032060 0.277636 -0.409501 0.450836 -0.004148 0.036758 0.443719 0.130189 -0.287683 -0.055027 0.176910 0.676467 0.017037 -0.487042 0.608705 0.229476 0.601675 -0.315255 0.095196 -0.611303 0.309380 -0.388141 -0.583454 0.045538 -0.437764 -0.498058 0.179539 0.001726 0.710060 -0.127418 -0.005537 0.092230 -0.030705 0.448219 -0.149761 0.205103 0.467878 0.123878 -0.349535 0.267233 -0.207394 0.278422 -0.204779 -0.049665 -0.124963 -0.893553 -0.005068 -0.313287 0.169001 -0.165173 -0.818391 -0.343700 1.232705 -0.537379 -0.063036 0.187977 0.078316 0.333363 -0.757855 -0.163999 0.086636 0.585853 -0.250265 -0.385387 -0.286925 -0.350045 -0.127089 -0.053092 0.197700 -0.082651 0.140649 -0.611427 -0.361670 0.452162 -0.055963 0.103157 -0.277851 0.338027 -0.577084 0.589376 0.151636 1.077942 0.173071 -0.093750 -0.270476 0.471654 -0.151222 -0.158366 0.016078 0.186023 0.207222 0.223752 0.243356 0.225183 0.297156 0.333880 0.335688 -0.223321 0.886355 0.018589 0.132949 -0.637453 -0.568201 -0.221299 -0.007822 0.515639 -0.254222 -0.232334 0.015085 0.715904 0.312674 0.503305 0.169665 0.362299 -0.226546 -0.475868 0.573337 0.066552 0.194307 -0.416565 0.073019 -0.458815 0.512043 0.252828 0.285379 
32 -0.399072 -0.069358 -0.038090 0.127888 -0.126578 -0.029894 -0.176053 -0.139128 0.193697 0.002201 -0.257553 -0.032970 0.091207 0.021295 0.255374 -0.319348 0.211309 -0.189570 0.194336 0.416492 0.309451 0.021524 0.056353 0.073765 0.070839 -0.088630 -0.351550 0.317053 -0.562048 -0.226990 -0.293505 0.441542 0.351120 -0.024854 -0.200578 0.546067 0.199304 -0.258530 0.339926 0.071297 0.237969 -0.221122 -0.023425 0.048930 -0.538695 0.248685 0.311337 -0.344069 -0.061761 -0.023888 -0.164428 -0.323595 0.337944 -0.318827 -0.246143 0.009771 0.399081 0.514163 -0.359171 -0.255260 -0.027863 -0.510609 0.825412 0.120972 0.319945 -0.166305 0.341725 -0.104150 -0.094843 0.437504 0.115123 0.148493 -0.161647 -0.185409 0.663890 -0.626186 -0.319438 0.353085 0.136886 0.013464 -0.258773 -0.345516 0.710209 -0.553535 -0.251350 0.551515 0.280173 0.070721 0.227012 0.242378 0.000183 -0.301493 -0.408062 -0.133919 0.624484 -0.376526 -0.036702 0.017711 -0.028554 -0.060236 0.067491 0.211169 -0.067340 -0.012911 0.318884 -0.528216 0.283516 0.337322 0.386716 0.119450 0.657660 0.140652 -0.097629 0.432633 -0.062597 -0.183958 0.555233 -0.379578 0.077795 0.177778 0.535622 0.663251 -0.100981 -0.285373 -0.634953 0.165533 0.485630 0.061025 
18 -0.386349 -0.149438 -0.118900 0.152371 0.124004 -0.274683 -0.117468 -0.112315 0.121137 -0.041843 -0.176128 -1.005908 0.165424 -0.290272 0.040716 0.130691 -0.141687 0.517968 -0.014003 -0.059158 0.416878 0.577473 -0.375427 0.529759 -0.158038 0.627752 -0.196932 0.296560 -0.432047 -0.034193 0.368685 -0.225467 0.569860 0.096954 0.080319 0.023687 0.167137 -0.414957 -0.014106 0.179496 0.461492 -0.161584 0.547721 -0.306664 -0.116225 -0.126293 -0.299221 -0.389598 -0.405729 -0.394040 0.180628 -0.583555 0.370895 -0.167279 -0.202107 -0.489648 -0.924985 0.375288 -0.286699 0.203409 0.546062 0.587052 -0.270123 -0.240712 0.848862 -0.130555 0.207034 -0.929265 -0.050981 -0.281375 -0.457831 0.706554 0.326154 0.240964 0.164469 0.519022 0.046063 0.135243 -0.006705 0.089074 -0.296187 0.369907 0.016467 -0.321770 0.701938 0.272692 -0.081058 0.527693 0.124261 0.668936 -0.143932 0.406784 -0.041413 -0.153152 0.125504 0.636735 0.492042 -0.203956 0.079452 -0.484170 -0.100607 -0.609967 -0.386328 -0.126999 0.527449 -0.496433 0.252896 0.110460 0.513517 0.203001 -0.371594 -0.398639 -0.537942 0.388103 -0.133600 0.410515 0.351168 -0.181650 0.582994 -0.084903 0.088940 -0.001884 -0.434261 0.453501 -0.187573 -0.351978 0.122368 0.293285 
21 -0.126773 0.061706 -0.007496 0.008253 -0.502596 0.622526 0.614200 0.368824 0.501918 -0.342418 0.042802 -0.283492 -0.183341 -0.247638 -0.155751 -0.057038 0.224940 0.364788 -0.351099 0.626038 -0.229651 0.309378 0.235680 0.179084 0.348800 -0.550245 0.073057 0.307312 0.342873 -0.004880 -0.219009 -0.804133 0.573408 0.331654 -0.159397 -0.083065 -0.224337 -0.229122 -0.027031 -0.120272 0.226374 0.118210 -0.215477 -0.721893 0.003182 -0.569597 0.081767 -0.110223 -0.550838 0.474504 -0.302243 0.246084 0.131980 0.270671 0.118014 0.669703 -0.478555 0.333302 -0.007773 0.247423 0.614458 0.001105 -0.328815 -0.499683 0.209363 -0.552670 0.323650 -0.728062 -0.130392 -0.228176 0.123178 0.087915 -0.137061 -0.099668 0.280200 -0.221574 0.491959 -0.127696 -0.066726 -0.325923 0.278611 0.385781 -0.143843 -0.089817 0.757656 -0.261865 -0.348935 -0.069597 0.029136 0.215199 -0.186377 -0.381680 -0.404792 0.385808 -0.414515 0.382836 -0.120526 -0.861900 0.223777 0.523310 0.158636 -0.371176 0.073213 -0.179036 0.055206 -0.044139 0.028863 0.276654 -0.088594 0.254162 0.088084 0.366547 0.023898 0.588421 -0.488402 0.057924 0.771169 0.152183 0.448692 0.097357 0.096429 0.095565 -0.932893 0.359447 0.540195 0.056111 -0.114084 0.207889 
33 -0.669796 0.182090 -0.024875 0.269635 -0.119199 0.037367 0.094921 0.235912 -0.261622 0.006936 -0.415239 -0.301411 0.585845 -0.283072 -0.226112 0.283421 -0.354462 0.443646 0.364511 0.539895 0.176557 0.307623 0.424569 0.478830 0.117955 -0.228536 -0.274362 -0.473714 -0.419540 0.297182 -0.413038 -0.216013 0.548874 -0.113607 0.181295 -0.331541 0.305331 -0.271044 -0.127607 0.047783 0.167382 -0.498251 -0.179012 -0.386078 -0.178143 -0.218015 -0.084013 0.180694 0.199184 0.302990 -0.297905 0.704671 -0.321672 0.309314 0.219828 -0.291043 0.083617 0.117544 0.006442 -0.537314 0.491547 -0.237486 0.040017 -0.197680 -0.486686 -0.240894 -0.232456 -0.053315 -0.115193 -0.219916 -0.250187 0.255697 0.342339 -0.096721 -0.140264 -0.242276 -0.093502 -0.195918 0.033671 0.302990 -0.577436 -0.054111 0.308325 -0.216360 -0.251984 -0.605199 0.293475 0.443960 0.290704 -0.116789 0.629970 -0.595509 -0.476463 -0.047771 -0.583511 -0.348943 0.098614 0.141731 -0.148995 -0.428960 -0.541541 -0.007004 -0.010612 -0.014148 0.090685 -0.279375 -0.523139 0.569161 -0.148240 -0.949855 0.192805 0.373848 0.385103 0.640877 0.176914 0.553476 0.426991 -0.580740 0.268053 -0.509675 0.295557 0.722383 0.298138 0.590602 0.269487 -0.164606 -0.528196 -0.111134 
10 -0.268550 0.081973 0.073287 -0.154884 0.371358 -0.333327 0.093185 -0.137355 0.143326 0.191965 -0.134545 -0.228705 -0.229552 -0.031585 0.185913 -0.256777 -0.359073 0.648528 0.035047 0.302253 -0.143056 0.638209 -0.387749 0.204060 -0.080485 -0.307042 -0.134051 -0.033838 -0.221081 -0.239924 0.148233 0.017481 0.481682 0.133348 0.168645 -0.128969 0.192962 -0.106269 0.103606 0.142300 0.778019 -0.687492 0.293553 -0.452482 0.309886 -0.331784 -0.064566 -0.135258 -0.734709 0.239261 -0.389901 -0.038448 0.483939 -0.685441 0.091466 0.377551 -0.678787 0.150826 0.176620 0.252459 0.652581 0.066432 -0.480824 -0.040717 0.255981 -0.437830 -0.571513 -0.822539 -0.329035 -0.549064 -0.173369 0.444537 -0.029154 0.381055 -0.704815 0.362112 0.516244 -0.290595 0.144999 -0.347659 0.368512 0.276887 0.395562 -0.109238 1.037233 0.047713 -0.336932 -0.488573 -0.083296 0.137206 -0.274024 0.211266 0.084728 0.151819 0.132475 0.567346 0.107969 -0.249205 0.367606 -0.211753 -0.381978 -0.087545 -0.627460 -0.172164 0.062378 -0.603672 0.200840 -0.073818 0.604908 -0.040783 -0.159851 -0.210806 0.165846 0.074381 -0.168119 0.102762 0.684636 -0.526533 0.158062 0.353316 0.150526 0.240623 -0.278263 0.201523 0.335433 -0.100803 -0.085912 0.462451 
25 -0.486091 0.102619 0.139295 0.286778 0.074997 0.059277 0.656920 0.042487 0.332446 -0.372941 -0.164178 0.639670 0.238012 0.431935 -0.127593 -0.500696 0.208324 0.174033 -0.292459 0.739193 -0.296737 0.786025 -0.412978 0.017038 0.608124 0.150953 0.171857 -0.097145 -0.324610 -0.253863 -0.483622 0.214049 -0.377417 0.038066 -0.587199 -0.069592 -0.510290 0.143613 -0.479349 -0.428690 -0.335977 -0.525491 0.002864 -0.721646 0.214352 0.315524 0.319844 -0.374170 -0.042587 0.984398 -0.122096 0.366959 0.055628 0.078272 0.022928 0.504012 -0.157649 0.401797 0.409425 -0.163208 0.288685 -0.232754 -0.035962 -0.270569 0.261688 -0.320468 -0.079973 -0.772501 -0.134817 -0.351420 0.228397 -0.279968 0.509630 0.123774 -0.449146 -0.652826 0.129916 -0.016029 0.280635 -0.459989 0.135072 0.031125 -0.290069 0.848269 0.310648 -0.437355 0.025905 -0.110505 -0.271264 -0.282212 0.645099 -0.512075 -0.472564 0.416986 -1.011471 0.626417 -0.485412 -0.614869 0.491044 0.008281 0.240792 0.262018 0.047277 0.260958 -0.639549 -0.154912 0.191944 -0.151335 -0.082516 -0.768722 -0.288508 -0.294299 0.199457 -0.050116 0.634575 -0.533621 -0.389764 0.034074 -0.186503 0.516678 -0.285766 0.326650 0.283319 0.012359 -0.166705 0.029896 0.216764 0.158886 
34 -0.157765 -0.218154 -0.213326 -0.216163 -0.149088 -0.004587 0.140690 0.286236 -0.083604 -0.175083 0.214888 -0.207051 -0.010383 -0.159409 0.317753 -0.056351 -0.016050 0.167642 -0.109037 0.123404 0.312494 0.559950 -0.297783 -0.162142 0.548821 0.159033 0.054116 0.413639 -0.162229 -0.437298 -0.310066 0.024682 0.097251 -0.162229 -0.507849 0.328457 0.007511 -0.188867 -0.503996 0.194698 -0.228698 0.003271 0.187945 -0.085737 -0.401148 0.051433 0.532630 -0.329872 0.182927 -0.082011 0.402230 -0.301815 0.095135 -0.079315 -0.097536 -0.221380 -0.152719 0.327648 0.033792 0.034919 0.406780 -0.181586 -0.004293 -0.597952 0.713849 -0.228875 0.625509 0.052346 0.474521 -0.143737 -0.258255 0.181740 0.469865 -0.261175 0.319983 -0.598544 -0.358470 0.355947 0.272142 0.224419 0.269602 0.253927 0.399478 -0.083210 0.238162 0.395127 -0.139135 0.617567 -0.226967 -0.270588 -0.071633 -0.122529 -0.429277 -0.259776 -0.271012 0.172821 -0.481669 -0.318682 -0.315853 0.058906 -0.018285 0.136607 0.082401 0.287670 -0.150901 -0.245448 0.130640 0.051749 0.154098 0.006163 -0.173387 -0.491362 -0.393749 0.411140 0.149878 0.119487 0.063602 -0.005887 0.524791 0.246130 0.041640 0.722092 0.371412 -0.099806 -0.489912 -0.397123 -0.310281 -0.360721 
31 -0.590992 0.027589 0.582781 -0.016513 0.048531 -0.268291 -0.258701 -0.219096 0.094026 0.120699 -0.328867 0.210579 0.137136 -0.304245 0.289013 -0.168689 -0.502910 0.396880 -0.393749 0.543712 -0.134909 0.266902 -0.021120 0.099934 -0.027114 -0.271205 -0.348662 0.030843 -0.609650 -0.351071 -0.098787 0.032570 0.533124 -0.030377 0.196754 -0.109816 0.668264 0.057396 -0.160269 0.171520 0.464446 -0.282884 0.606467 -0.352943 -0.215970 -0.355286 0.294924 -0.135146 0.209053 0.649424 -0.146310 0.378569 0.899179 -0.056720 0.304494 -0.290687 0.017272 0.077648 -0.075179 0.124213 0.472200 0.394296 0.553360 -0.111056 0.153565 -0.424303 -0.082378 -0.641371 0.163432 -0.276844 -0.068351 -0.214783 0.378517 0.564594 0.129285 0.085035 -0.189731 -0.080488 0.027819 -0.069025 0.211204 -0.091251 0.527827 -0.120526 0.326938 0.421730 0.211008 -0.181632 -0.169281 0.285555 0.432979 0.102788 -0.029023 -0.466977 0.472245 0.183903 0.192833 -0.230305 0.572443 -0.164863 -0.397269 0.111737 -0.152178 -0.316709 0.416754 0.107249 0.499833 -0.369671 0.134272 -0.050534 -0.411396 -0.026010 -0.041969 -0.246942 -0.412019 -0.398019 0.396359 -0.652521 0.363410 0.135380 0.565485 0.355342 0.330740 -0.093585 -0.214614 -0.618457 0.121912 -0.135038 
36 -0.204288 -0.225559 -0.339469 0.096801 0.074496 -0.219518 0.239918 0.039184 0.098292 -0.011153 -0.171084 0.108913 -0.071090 -0.191443 -0.032405 0.220917 -0.193300 0.563764 0.591611 0.015270 0.283294 0.502635 -0.272194 0.249180 0.005744 0.286523 0.024853 0.002159 -0.002444 -0.358112 -0.138547 0.186468 0.898140 0.091709 -0.113689 0.067630 0.127956 0.102070 -0.228899 0.241752 0.731755 -0.854088 -0.200465 -0.201439 -0.197673 0.147303 0.475699 0.083682 -0.094021 0.141453 -0.015054 0.033916 -0.064961 -0.780765 -0.302822 -0.003294 -0.067085 0.318459 0.544186 0.321986 0.303660 0.142114 -0.356012 -0.542082 -0.324383 -0.414648 -0.808357 -0.075567 -0.046321 -0.136468 -0.302989 0.132471 0.236057 -0.262000 -0.708578 0.173204 -0.118650 -0.196253 0.241739 0.005615 0.381613 0.591391 0.514404 -0.154979 0.357540 0.145535 -0.031434 -0.283887 -0.023341 -0.250851 -0.337584 -0.120283 -0.327094 -0.166377 -0.289795 -0.244899 -0.724996 0.024277 -0.338831 -0.159795 -0.839427 0.204591 -0.430713 0.132002 0.031176 -0.067656 0.280704 -0.510746 0.283497 -0.091211 -0.079673 -0.773726 0.069981 -0.211564 0.134613 -0.034319 0.660427 -0.308732 0.103791 0.164567 0.216969 0.709139 -0.018016 -0.247738 0.184930 -0.142950 -0.392394 -0.136954 
29 -0.207951 -0.449529 0.004016 0.349506 -0.102193 0.032324 0.590684 0.312374 0.212880 -0.176193 -0.766020 0.385298 -0.050422 -0.035527 0.213210 -0.215964 0.332880 0.045439 -0.236009 0.391192 0.071479 0.141120 -0.075583 -0.190990 -0.049170 -0.493404 0.042212 0.020325 -0.404064 0.438371 -0.373622 0.369481 -0.414839 0.282879 -0.570612 0.054907 0.325804 -0.193058 -0.225405 -0.201514 -0.006407 0.089769 -0.712374 0.035839 -0.192567 0.218061 0.092982 -0.346670 0.341964 0.570437 0.169916 0.442014 0.039275 -0.293657 -0.069424 -0.093672 0.078907 0.589717 -0.243846 -0.408822 0.601243 -0.356581 0.711320 0.264070 0.158095 -0.022228 0.710176 -0.465338 -0.056951 0.180996 -0.193674 -0.148799 0.299598 -0.108443 0.150647 -0.030409 -0.353497 -0.152377 0.535676 -0.144198 -0.501524 -0.108073 0.002944 0.186296 -0.435104 0.279289 0.065102 0.040240 -0.454274 0.182496 0.155737 -0.011627 0.123914 0.323763 -0.345583 -0.083251 -0.122073 0.158041 0.097914 -0.232381 0.595649 0.015616 0.116883 0.797800 -0.276149 -0.552855 0.589815 0.567243 0.179023 -0.368607 0.872589 -0.247944 0.040727 0.936927 0.596546 -0.388671 -0.171932 0.116474 0.640063 -0.065792 0.537507 0.654596 -0.275416 0.048385 0.076693 0.132261 0.071678 -0.324765 
35 -0.044944 0.294441 0.198467 -0.230824 -0.182996 -0.407540 0.344683 -0.153292 -0.368802 0.297121 -0.022204 0.078983 -0.400511 -0.547164 0.495686 0.329815 -0.057580 0.689114 -0.382846 0.116672 -0.165101 -0.004541 0.160836 -0.233926 -0.202592 -0.551278 0.544946 -0.432109 0.205117 0.495151 -0.053524 0.376694 0.287753 0.349785 -0.008988 -0.343201 0.734936 0.007766 -0.051902 0.218823 0.240924 -0.359571 0.096379 0.022362 -0.352795 -0.326148 -0.096201 0.040203 0.281848 0.256083 0.360252 0.449016 -0.190744 -0.643856 0.144190 0.132389 0.478521 -0.265607 0.350172 0.217758 0.685551 -0.241610 0.386101 -0.172480 -0.495400 -0.087864 -0.198936 0.205345 0.566387 0.226784 -0.094353 -0.028879 0.481189 -0.156376 -0.677993 0.213839 -0.137635 -0.373702 0.432365 0.151937 0.237281 -0.128483 0.239490 0.192028 -0.465732 0.359922 0.182442 -0.102312 -0.022369 -0.344091 -0.049113 0.176058 0.662378 0.272256 0.281399 -0.435003 -0.472414 0.644584 0.061690 0.387942 -0.678736 0.396565 -0.146831 0.362086 -0.567527 0.170538 0.320266 -0.191006 0.705033 -0.269782 0.130049 -0.345271 0.625348 0.434910 0.113467 0.151953 0.221657 -0.263868 0.465712 -0.143590 0.658777 1.006095 0.152863 -0.558054 -0.268066 -0.211610 -0.513264 -0.257550 
24 0.264912 -0.045880 -0.154596 0.053796 -0.434107 0.367820 0.041041 -0.253819 -0.238341 -0.634880 0.233738 -0.150671 0.028731 -0.232599 0.086955 0.225236 0.622076 0.165406 -0.175919 0.011717 -0.105618 0.155788 0.468163 0.189759 0.360134 0.370952 0.765804 0.059672 0.520555 0.376895 -0.361623 -0.173081 0.338343 0.697613 0.191234 -0.283225 0.031797 -0.439039 0.248915 -0.434447 -0.013139 0.090222 -0.199169 0.229422 -0.469275 0.023149 -0.068434 0.074701 0.416867 0.285734 0.414885 0.043567 0.108192 0.118897 0.516601 -0.469532 0.163270 -0.243532 0.413139 0.280563 0.594291 0.147375 0.080015 0.062558 -0.221275 -0.040582 0.116461 -0.572409 0.424853 -0.141948 -0.386218 -0.163787 0.051522 -0.433538 -0.290822 -0.090788 0.192240 -0.353419 0.083130 0.454989 -0.168213 0.090286 0.099665 -0.397835 -0.411336 -0.107668 -0.224958 0.159093 0.608183 -0.060741 0.568319 0.058494 0.279483 0.606261 0.127401 -0.132351 -0.383327 -0.309984 0.224326 -0.006602 -0.166785 -0.483384 -0.533152 -0.655582 0.553584 0.653031 0.382683 0.119697 0.025832 0.276606 0.064330 0.082105 0.345347 0.518746 -0.751597 0.362786 -0.291888 -0.045294 0.434041 -0.335232 0.081904 0.469454 -0.292769 -0.139652 0.175814 0.058258 0.240324 0.528558 
28 -0.199093 0.187618 -0.168890 0.025974 0.291868 -0.124626 0.491649 0.314161 -0.054521 -0.292874 -0.341771 -0.195190 -0.300832 -0.308424 0.212876 -0.004964 -0.198915 0.180216 -0.635435 -0.085183 -0.120833 0.759725 -0.150217 -0.142044 0.018131 0.414679 -0.354952 0.387619 0.107495 0.010222 0.001746 -0.303493 0.435582 -0.012799 -0.291266 0.578929 0.067673 0.043078 -0.283988 0.081045 1.047837 -0.344658 -0.323492 -0.090938 0.068559 0.004405 0.530218 -0.402342 -0.043889 -0.401808 -0.107221 0.192939 -0.127751 0.120832 -0.015214 -0.133647 0.011121 0.064821 -0.200656 -0.345830 0.432517 0.325537 0.392327 -0.537389 0.587203 0.168136 0.156720 -0.422780 0.188408 0.204152 0.021733 0.676393 0.440250 -0.884218 -0.599041 0.425239 0.280736 -0.456856 0.110309 0.516298 0.189461 0.328506 0.919329 0.510571 -0.118237 -0.261050 -0.282181 0.247236 0.070360 -0.106685 -0.292751 0.048560 0.221215 -0.851833 0.090947 -0.656425 0.206415 0.400596 -0.358658 -0.450379 -0.072432 0.139443 -0.753485 0.047135 -0.165868 0.262864 0.473973 -0.131490 0.202303 -0.098274 -0.440319 -0.126512 -1.039898 0.131685 -0.314717 0.337302 -0.202302 0.351746 0.486898 0.499414 0.361410 0.184847 0.266680 -0.186813 0.507389 -0.409359 -0.068014 0.230226 
23 -0.173835 0.052162 -0.491780 0.559720 0.275175 0.074965 -0.303946 -0.071015 -0.006824 -0.035714 -0.133756 -0.454183 0.166250 0.079308 -0.075255 -0.137451 0.415670 -0.011049 -0.719557 0.146857 0.257101 0.730128 -0.152931 0.133709 -0.116347 0.640113 0.183606 -0.304907 -0.132125 0.471127 -0.087719 0.158781 0.405736 0.304396 0.279813 0.045285 -0.166494 -0.124857 -0.028301 -0.101747 0.259748 -0.211318 0.307853 -0.406103 -0.104070 -0.326242 -0.330623 -0.171753 -0.419236 -0.035298 0.161344 0.051542 -0.004711 0.533969 -0.043023 -0.103874 -0.163205 0.772604 -0.737670 -0.363963 0.362746 -0.260578 0.739634 -0.245207 0.519300 0.160684 0.120412 -0.803888 0.401828 0.293120 0.366526 0.991795 0.551081 -0.354171 0.234748 0.175975 0.553712 -0.110331 0.190661 0.153788 -0.471034 -0.469538 -0.279728 0.293236 -0.632231 -0.452624 0.480369 0.888409 0.259610 0.592313 0.234865 0.007544 0.305506 0.120092 0.267534 0.133715 0.298451 0.196439 0.505022 0.198822 0.573083 -0.505278 -0.294658 0.089551 0.257553 -0.076655 -0.074202 0.342170 0.729391 -0.066359 0.137472 0.310507 -0.717104 0.761011 -0.015100 0.648261 -0.377096 0.334903 0.389820 -0.147543 0.583434 0.457425 0.099503 0.072361 -0.381931 -0.412310 0.576868 0.034251 
17 -0.653797 0.248360 0.334047 0.020373 -0.272786 0.257673 0.138907 -0.156755 0.337752 -0.455295 0.114643 0.171742 -0.003135 0.176197 0.324883 -0.862384 0.280057 -0.123553 -1.031314 0.644996 -0.160255 0.518206 -0.108455 -0.216909 0.700019 -0.091246 -0.077797 0.567380 -0.249644 -0.599922 -0.380111 -0.341528 0.371864 0.140365 -0.176971 0.395701 -0.111140 -0.147060 0.042517 -0.185443 0.280821 0.153643 0.395023 -0.666842 -0.274857 -0.419792 0.439103 -0.546562 -0.247855 0.460210 -0.218204 -0.064159 0.815655 0.472276 0.225726 0.482050 -0.040788 0.401722 -0.353493 0.178012 0.354502 -0.292451 0.645923 -0.127694 0.924687 -0.313585 0.512560 -0.844909 0.294982 -0.001044 0.385498 0.036023 0.341158 0.035493 0.632808 -0.639068 0.345221 0.193924 0.023216 -0.245488 0.280443 -0.025079 0.495881 0.049702 0.339794 0.108302 -0.093204 -0.018281 -0.201184 0.140668 0.289560 -0.215214 -0.200841 -0.123475 0.474024 0.245554 0.076717 -0.546463 0.381900 0.258929 0.587123 -0.055353 -0.086902 -0.192623 0.368073 0.022967 0.417437 0.142193 -0.066332 0.356259 -0.041745 0.310908 -0.543777 0.305746 -0.762229 -0.358435 0.181858 -0.033149 0.379606 0.479826 0.282553 0.218697 0.039631 -0.349963 -0.208531 -0.279796 0.456336 0.308232 
26 -0.080333 0.207805 -0.060615 -0.082581 -0.856234 0.192132 0.576710 -0.236906 -0.132137 -0.762136 0.388380 0.108443 -0.458111 -0.203844 0.210510 -0.317132 0.556769 0.430834 -0.576339 0.187945 -0.236125 0.188716 0.258722 -0.224379 0.453912 -0.404661 0.521529 0.333945 0.312916 -0.394333 -0.235389 -0.256421 0.169904 0.408413 -0.301569 -0.179272 -0.282925 -0.462517 -0.192144 -0.362050 -0.016045 0.312973 -0.068110 -0.524121 -0.346589 -0.082075 0.163994 -0.193438 -0.022836 0.482122 0.083996 -0.012288 0.575893 -0.334352 0.128892 0.347463 0.175471 -0.132590 0.542140 0.796996 0.564275 -0.280304 -0.299164 -0.169280 0.228300 -0.186241 0.166604 -0.330207 0.455421 -0.057902 0.023373 -0.231335 0.118358 -0.180645 0.066264 -0.622385 -0.055003 -0.110496 0.407738 -0.219700 0.405548 0.248456 0.062042 0.036411 0.302068 0.189291 -0.490530 -0.282282 -0.166972 -0.495159 0.195844 -0.001782 -0.173290 0.816157 0.108339 0.247197 -0.624733 -0.664661 -0.045965 0.148023 0.005787 0.010222 -0.059765 0.151593 -0.170824 0.071349 0.366598 0.143978 0.031454 0.042328 0.300328 -0.067596 0.224856 0.380261 -0.662469 -0.205545 0.339152 -0.167639 0.350369 0.330827 -0.176578 0.656901 -0.057599 -0.315260 0.034502 -0.135890 -0.279070 0.366281 
30 -0.429080 -0.104527 -0.372424 -0.045016 -0.442409 0.075873 0.156144 -0.193609 -0.416444 -0.308134 0.156105 0.149084 -0.119468 0.014950 0.158530 -0.280296 0.374579 0.163335 0.123123 0.081639 0.457880 -0.000597 0.295812 -0.349865 0.864634 -0.215890 0.604420 0.188644 0.160308 -0.108660 -0.691343 -0.230075 0.254812 0.206587 -0.216484 0.102170 0.268195 -0.285005 0.117475 -0.284499 -0.142449 -0.258892 -0.294385 0.180315 -0.905293 -0.142260 0.216907 0.053458 0.372355 0.217865 0.291817 -0.029048 -0.019120 -0.097186 0.237684 -0.037582 0.171244 0.014249 0.337678 0.189780 0.141768 -0.384951 -0.264793 -0.011782 -0.224954 -0.200534 0.241598 0.369047 0.190646 -0.160715 -0.345445 -0.211572 0.288613 -0.230493 0.236866 -0.458029 -0.065816 0.234509 0.120218 0.077568 -0.101424 0.596297 0.575420 -0.580878 -0.268947 0.238033 -0.137930 0.182020 -0.258985 -0.406420 -0.039938 -0.375808 -0.108581 0.287363 -0.071013 -0.224865 -0.550437 0.209407 -0.566960 0.041538 -0.282872 -0.278255 -0.047479 0.141218 0.551823 -0.207185 0.096693 0.610187 -0.197292 0.195945 0.634747 -0.353268 0.337338 0.702599 -0.185435 -0.063710 0.193691 -0.425953 0.678361 -0.381756 0.055615 0.754136 0.122846 -0.276130 0.270952 0.346272 -0.643533 -0.060076 
37 -0.354234 -0.186101 0.259446 -0.065326 -0.398004 -0.338509 0.147334 -0.174371 -0.274765 -0.238006 -0.187932 -0.060165 -0.383623 -0.416437 0.309309 -0.351839 0.269409 0.305953 -0.719857 -0.188140 0.308661 -0.014468 0.411685 -0.162178 0.206743 -0.318116 -0.092051 0.415589 -0.308718 -0.507458 0.012207 -0.158978 0.416830 0.230829 -0.278483 -0.111506 0.042133 -0.395536 0.118962 -0.325102 0.387578 0.175892 0.188123 -0.565893 -0.788987 -0.185693 -0.084818 -0.460573 0.325640 0.265834 0.200248 -0.231710 0.489044 -0.349267 -0.084301 -0.048397 0.562944 -0.358186 0.276434 0.962069 0.235798 0.113927 0.099880 -0.057686 0.002971 0.090505 0.066778 -0.037257 0.475155 0.337053 0.131348 -0.283048 0.570580 0.196158 0.418553 -0.052082 -0.549668 0.258622 0.383106 -0.212277 -0.152266 0.466624 0.190176 -0.119319 -0.228881 0.607593 -0.016126 -0.416240 -0.554692 -0.274436 0.103708 0.213156 -0.148101 0.401076 0.644711 -0.107851 -0.128961 0.123142 -0.503989 -0.404614 -0.238668 -0.105427 0.091499 0.536342 0.004783 -0.323624 0.566397 0.269126 0.045747 -0.064154 0.600261 -0.431275 -0.014348 0.279431 -0.354475 -0.527577 0.805041 -0.450082 0.460435 -0.012790 0.196692 0.722798 -0.083792 -0.726048 -0.191266 -0.159821 -0.463589 0.121882 
38 -0.661936 0.154630 -0.055503 0.234924 -0.518241 -0.152283 -0.111282 -0.437156 -0.228102 -0.283893 0.116736 0.261569 -0.002191 -0.245034 -0.221198 -0.159473 0.195308 0.251426 -0.162216 0.259947 0.331901 0.625500 0.346909 0.180173 0.401731 0.190138 -0.058654 -0.169444 -0.130019 -0.593021 -0.210792 0.096667 0.871893 -0.028191 0.193889 -0.405245 -0.368391 -0.185129 -0.190355 -0.293958 -0.076968 -0.341847 0.341471 -0.662668 -0.489670 -0.077562 0.130810 0.006398 -0.017372 0.663908 -0.049323 0.024115 0.631406 -0.022593 0.109480 -0.065513 0.649758 0.038837 0.544141 0.622311 0.116707 -0.205304 -0.242397 -0.396451 -0.432477 -0.481738 -0.431019 0.108052 0.329044 0.112630 0.363691 -0.007768 0.138791 0.173126 0.138857 -0.676205 -0.317843 0.362710 0.122657 -0.144336 -0.098925 -0.184048 -0.202620 -0.186694 -0.223261 -0.037251 0.378623 -0.006869 -0.117118 -0.144568 0.330885 -0.251010 -0.617643 0.606958 0.247140 -0.003216 -0.550391 -0.650140 0.081395 -0.110216 -0.394585 -0.089136 -0.023261 0.067842 0.119233 -0.109287 0.054548 -0.013491 0.308053 -0.245632 0.254242 0.071335 0.233948 -0.172833 -0.120573 -0.062179 0.773688 -0.538085 -0.368537 0.095635 0.069092 0.811025 0.526799 -0.331141 -0.425618 -0.484578 -0.019026 -0.130212 
27 -0.588237 0.770362 -0.002855 0.523404 -0.107032 -0.037552 0.010581 -0.580036 -0.198069 0.074857 -0.581741 0.219257 -0.174985 -0.060803 0.119567 -0.459138 0.028480 0.495342 -0.277057 0.337767 0.154942 0.610783 0.319885 -0.353443 0.376752 0.587024 0.584645 -0.324991 0.565957 0.592980 -0.234325 -0.426571 0.772566 0.248597 0.069013 0.055936 0.375825 -0.017416 0.437885 -0.570484 0.526805 -0.647314 0.363784 -0.259391 -0.599051 -0.247751 -0.251427 0.030309 0.286542 0.675355 -0.329912 0.133505 -0.041890 0.666871 0.619265 0.218974 0.287873 -0.291502 0.143712 -0.111665 0.172689 -0.053867 0.148472 0.179613 -0.660806 -0.318120 -0.358546 -0.260618 0.080466 0.144852 0.389430 0.375430 0.512716 -0.082398 -0.517903 0.471486 0.846140 -0.028810 -0.402744 -0.363613 -0.141114 0.066915 0.364255 0.291978 -0.739205 -0.349872 0.394033 -0.348742 -0.024108 -0.097168 -0.047909 -0.437528 0.792307 0.231985 0.270118 -0.560899 -0.054914 0.394371 -0.070656 0.126350 -0.485475 -0.656365 -0.661919 -0.080914 0.778008 0.308133 0.415458 0.243853 0.189581 -0.075103 -0.162643 0.157621 0.030249 0.120767 -0.598933 0.043179 0.104598 -0.397766 0.287643 -0.298775 0.529753 0.197051 0.426742 -0.364923 0.659247 0.245792 -0.210258 0.520848 
20 -0.380146 -0.251296 -1.048678 0.397999 0.186704 -0.549280 0.020713 0.112254 -0.471013 -0.287616 -0.321045 -0.662229 -0.462801 -0.408606 0.144727 0.112444 -0.078779 0.599071 -0.851471 -0.234368 0.299340 1.293027 -0.449500 -0.092949 -0.178768 0.969973 -0.009387 0.093105 -0.113336 0.109549 0.188230 -0.027976 0.292151 -0.120161 -0.246317 0.110037 -0.199111 -0.450008 -0.725719 -0.259528 0.311675 -0.250509 0.392530 -0.536820 -0.224943 0.036226 -0.113679 -0.482519 -0.326718 -0.068660 0.229841 -0.093579 0.457565 -0.011285 -0.096366 -0.298948 -0.347836 0.243650 -0.096096 0.117658 0.642960 0.091440 -0.175621 -0.665583 1.019717 0.038149 0.381583 -0.669464 0.461869 0.090637 0.032081 1.165720 0.755898 -0.357104 -0.235768 0.262692 0.214011 -0.037708 0.295519 0.133660 -0.203826 -0.164688 0.037604 0.741356 0.051972 -0.075957 -0.065362 0.937164 -0.080674 0.035324 -0.125977 0.334431 0.326027 0.209931 0.132154 0.382236 0.315125 -0.081250 -0.056666 -0.549137 -0.019341 -0.289487 -0.485567 0.650081 -0.136107 -0.337030 0.321081 0.272601 0.923009 -0.479429 -0.506054 -0.295986 -0.886349 0.557284 0.129538 0.697444 -0.170768 0.034717 0.377398 0.405526 0.122062 0.635156 0.703353 0.223466 -0.136501 -0.733843 -0.097465 0.141159 
22 0.011237 0.434445 -0.226763 0.327919 -0.173720 0.308125 0.604288 0.122117 -0.004214 -0.515540 -0.540854 -0.130455 -0.431182 -0.200136 -0.081422 -0.264843 0.139970 0.429141 -0.626496 0.145850 -0.187581 1.097765 0.146836 -0.240371 0.358821 0.565854 0.231067 0.192672 0.806810 0.361848 -0.028049 -0.829161 0.564769 0.277394 -0.328420 0.179160 -0.230624 -0.170178 -0.044948 -0.577550 0.755193 -0.258133 -0.120182 -0.608633 -0.050554 -0.162279 -0.024417 -0.320544 -0.027734 0.439304 -0.364608 0.116425 -0.032938 0.558128 0.480793 0.248761 -0.099624 -0.173593 0.134044 -0.092928 0.717198 0.176661 -0.168345 -0.212240 0.051227 -0.206909 -0.005077 -0.801637 0.117334 0.018983 0.274316 0.712682 0.364401 -0.475048 -0.731767 0.447212 0.836743 -0.385684 -0.099758 -0.197273 0.157239 0.240715 0.261789 0.698412 -0.092546 -0.638236 -0.230913 -0.238399 -0.047371 -0.209545 -0.155525 -0.208719 0.525457 0.248095 -0.210958 -0.274155 -0.058532 -0.235241 -0.124164 -0.159749 -0.009084 -0.653453 -0.878983 0.091521 0.161624 0.177623 0.582176 0.223308 0.223274 -0.188842 -0.302425 0.140538 -0.483586 0.400408 -0.779495 0.354699 0.076405 0.108201 0.436714 0.257196 0.250238 0.224654 0.128696 -0.007531 1.011457 -0.076233 -0.267242 0.789664 
39 -0.285095 0.471783 0.353921 0.401418 -0.434058 -0.196936 0.579959 -0.520804 0.299107 -0.259857 -0.201651 -0.164124 0.329891 -0.093229 -0.107885 0.030199 0.164492 1.041222 0.083997 0.334247 0.077180 0.265016 -0.033041 0.482886 -0.049459 0.541569 0.329666 -0.148907 -0.309422 -0.151861 0.129208 0.002895 0.764144 0.355037 -0.387364 -0.222796 0.060042 -0.240058 -0.234179 -0.101252 0.522213 -0.482943 0.388206 -1.106022 -0.429870 0.306115 -0.145269 -0.222672 0.270919 0.489649 0.159573 -0.008226 -0.179943 -0.317417 -0.510554 0.062622 -0.009635 0.160545 0.490592 0.599994 0.222237 0.379960 -0.026645 -0.381594 -0.205714 -0.046672 -0.854751 -0.571907 0.254530 0.197028 0.039749 -0.222652 0.871199 -0.010432 -0.246079 0.091018 -0.390602 -0.108351 0.258184 -0.431893 0.130062 0.427342 -0.197594 0.485091 0.069199 0.040262 0.456121 -0.284361 0.097944 -0.226953 0.439630 -0.282664 -0.309216 0.322261 -0.522463 -0.029129 -0.713828 -0.022502 -0.224185 0.094207 -0.668687 0.128517 0.056625 0.426874 -0.141258 0.293092 0.461681 -0.601168 0.016320 -0.522657 -0.308812 -0.792731 0.160003 -0.186509 -0.015806 -0.461170 0.318148 -0.319121 0.313575 0.016879 0.021968 0.558894 -0.005794 -0.387040 -0.326586 -0.104737 -0.317330 0.255460 
