39 128
1 -0.072001 0.100739 0.167641 -0.015418 0.058953 -0.300342 0.110773 0.151400 0.114075 -0.074866 0.016212 0.062134 -0.097652 0.480206 0.169700 -0.304808 -0.068168 -0.022064 0.102066 0.317362 -0.197382 0.478151 -0.371782 0.143885 0.206120 -0.217634 -0.541729 0.008220 -0.576552 -0.775778 -0.019174 0.387407 -0.000902 -0.206553 -0.027195 0.161307 0.237265 0.045696 -0.006696 -0.202421 0.202909 -0.200183 0.585414 -0.200973 0.240410 0.242833 -0.016122 -0.178096 -0.131474 0.368617 -0.680497 -0.344616 0.572717 -0.074795 0.590800 0.444941 -0.273254 0.000759 0.211675 -0.158950 -0.017918 -0.171439 -0.259095 -0.138421 0.180540 -0.037058 -0.477127 -0.104934 -0.071196 -0.006600 0.567794 0.421366 0.072120 0.545570 -0.352477 0.116143 0.402673 0.148101 0.158032 -0.830247 0.412983 -0.549108 0.347887 0.206897 0.694922 -0.151545 -0.176706 -0.268843 0.083120 -0.238817 0.031640 -0.137898 0.026614 -0.420715 -0.708898 0.323292 0.631843 -0.516627 0.515145 -0.029715 -0.129267 0.091031 0.006412 -0.237016 -0.180445 -0.702017 0.198624 0.184415 -0.554237 -0.298446 -0.755696 0.480992 -0.367049 0.424794 -0.492462 -0.017824 -0.346683 -0.376998 -0.630373 0.246669 -0.323027 0.656160 0.416212 0.316051 0.107217 0.655457 0.096405 1.283036 
2 0.127141 0.340354 -0.003329 -0.052013 0.056508 -0.155893 0.241201 -0.133454 -0.250352 0.149447 0.024215 -0.000569 -0.096443 -0.080087 -0.054509 0.058157 0.044325 -0.190662 -0.064933 0.040054 0.271658 0.074463 -0.089807 0.162723 0.460648 -0.434333 -0.115498 -0.071253 -0.573505 -0.069374 0.172204 0.340399 -0.748565 -0.190043 -0.152428 0.399304 -0.390230 -0.300642 0.332452 -0.342593 -0.077262 -0.122727 -0.083419 -0.020228 0.019799 -0.124263 -0.182512 -0.711818 -0.312618 0.330954 0.041749 -0.256612 0.292997 0.118823 0.638526 0.543256 -0.522300 -0.397621 0.817143 -0.235285 0.401273 -0.390140 -1.082018 0.853759 0.444604 0.118364 0.300396 -0.212728 -0.935858 -0.570507 0.141818 0.492865 0.209142 0.369079 -0.620817 0.359788 0.367662 0.175016 0.211289 -0.091432 0.289228 -0.045582 -0.028214 0.174178 0.523034 -0.054097 -0.223862 0.332458 -0.098556 0.052676 -0.407494 0.599593 0.252906 -0.005941 -0.128482 0.683722 0.484276 -0.086205 0.545202 -0.336280 0.085737 0.141972 -0.424396 -0.220788 -0.060133 -0.872239 0.104592 0.345620 0.553553 -0.130528 0.672570 -0.703007 -0.039308 0.601423 0.235116 -0.447614 0.108547 -0.622756 -0.002462 0.252050 -0.053857 -0.364739 0.102911 0.203959 0.256914 -0.319784 0.418299 0.391441 
3 -0.016780 -0.147569 -0.065593 0.067532 0.090406 -0.012118 -0.029914 -0.037914 -0.022153 0.034107 0.184455 -0.112392 -0.112575 0.110204 0.040434 -0.052479 0.151749 0.288186 -0.035001 0.060441 -0.178920 0.099506 -0.064630 0.006352 -0.464619 0.295663 -0.144285 0.188673 0.233343 -0.038705 -0.047003 0.121038 0.047359 0.032366 -0.048534 0.050891 0.142319 -0.244196 0.269125 0.245441 -0.036841 -0.275015 0.116051 0.296705 -0.503133 0.097411 0.261658 -0.216739 0.001459 -0.203594 0.209026 -0.351004 0.397329 -0.355612 0.090983 0.202129 -0.190032 0.209048 0.313884 0.140679 0.432289 -0.303431 -0.320179 0.699687 0.575566 -0.080429 0.222163 0.166982 -0.248830 -0.158382 -0.367166 0.178358 -0.283585 0.183273 -0.293384 0.146850 -0.196410 0.019639 0.719165 0.099396 0.498630 -0.588018 0.840881 -0.490832 0.561576 0.594624 -0.455431 -0.170494 0.103525 -0.350731 0.099781 -0.035095 -0.189437 0.112745 -0.337667 0.085914 0.132217 0.067326 0.162469 -0.554549 0.416489 -0.551023 -0.515579 0.009414 0.102359 -0.831447 0.136370 0.015239 0.074730 0.196574 -0.009594 0.266754 -0.071346 -0.182701 0.371511 0.075172 0.208743 -0.421843 -0.628193 0.109776 -0.560643 0.126318 -0.537646 -0.000119 0.234536 0.982039 0.691447 1.049933 
5 -0.146796 0.197536 0.069868 0.032920 -0.124916 0.042572 0.041643 -0.010841 -0.002136 -0.236694 0.016294 -0.127682 -0.127115 0.040077 0.108484 0.189086 -0.071544 -0.119236 0.372404 -0.202955 -0.018866 -0.051011 -0.219757 0.091658 -0.301701 0.341771 -0.580083 -0.048491 -0.400208 0.177671 -0.043363 0.724320 -0.172219 -0.093740 0.101392 0.234766 -0.297381 -0.052344 0.278031 0.186964 0.146107 0.450806 -0.292473 -0.176309 0.427490 0.654953 0.029257 -0.335490 -0.152983 0.074747 -0.203725 -0.266904 -0.054474 -0.712388 -0.622993 -0.333268 0.099974 -0.015028 0.371105 -0.331512 0.230359 -0.454513 0.257040 0.604375 0.686346 0.447616 -0.146661 -0.111548 -0.431430 -0.516352 -0.642169 -0.634462 -0.560005 0.133363 0.062205 -0.515567 -0.571006 0.002601 -0.037160 0.078968 -0.321837 -0.507938 0.023438 -0.180067 0.374264 -0.093765 -0.525506 0.006243 0.431301 -0.163718 0.698099 0.316041 -0.004334 -0.207279 0.437740 -0.016499 0.171851 0.185211 -0.315610 -0.697458 0.325446 -0.092918 -0.410686 0.104660 -0.272641 0.011496 -0.071962 0.154368 -0.671453 0.154540 -0.112039 -0.098264 -0.016727 -0.391925 0.147104 0.296081 -0.680325 -0.184779 -0.515229 0.146925 -0.564510 -0.474515 0.140551 0.745793 -0.596937 -0.208517 0.051169 1.051345 
9 -0.188246 0.136820 -0.105314 -0.110001 -0.206335 0.196360 0.268795 0.052926 0.136024 0.164604 -0.021967 -0.257137 0.377332 -0.159006 -0.143919 0.015060 -0.029314 0.149072 -0.155863 0.436060 -0.410006 0.178534 0.014575 0.169492 0.033755 -0.170691 0.104599 -0.008859 -0.276128 -0.187671 -0.262793 -0.277194 0.042726 -0.235326 0.470109 0.350507 0.305239 0.082925 -0.175929 -0.223970 0.714607 -0.359936 0.126985 -0.296277 0.247345 0.399187 0.009822 -0.368040 -0.162395 -0.289012 -0.209686 -0.070539 0.391538 -0.616665 0.026058 -0.300496 0.129381 0.672486 -0.120055 -0.194848 -0.132198 0.289250 -0.068047 0.300096 0.139113 -0.243634 -0.356208 -0.065376 -0.324179 -0.075692 -0.225288 0.102671 -0.130571 0.267561 -0.753395 0.228420 -0.065593 -0.340448 -0.055971 -0.988115 0.523076 1.005367 0.540894 -0.523462 0.660391 0.353728 -0.076989 -0.466503 -0.832584 -0.020821 0.221037 -0.694725 -0.004591 -0.181833 0.020026 -0.210609 0.459112 0.296152 -0.144005 -0.271320 -0.331362 -0.503649 -0.624532 -0.249390 0.265877 -0.851638 0.722099 -0.562425 -0.038447 -0.583027 0.425363 -0.353101 0.158764 0.367502 -0.092323 -0.309405 0.312896 -1.063686 0.615170 0.249503 -0.719660 -0.546306 -0.032099 0.765292 -0.098950 -0.058565 -0.313554 0.662386 
11 0.019457 0.162774 -0.039266 -0.074718 0.001127 -0.197033 -0.124008 0.082367 0.026748 0.363233 0.060761 -0.186252 -0.115570 0.123050 0.194912 0.025072 -0.033974 -0.133620 -0.012645 -0.191743 -0.211561 -0.045029 -0.263980 -0.158793 -0.168422 0.032462 -0.251497 0.130154 -0.131755 -0.344550 -0.212821 0.330169 -0.003327 0.388338 0.219474 0.146517 0.185704 0.017245 0.366419 0.747953 0.707684 -0.086300 0.654704 0.481309 -0.122346 0.185121 -0.204381 -0.277029 0.105117 -0.238474 -0.209785 -0.344374 -0.217805 -0.115865 0.181487 -0.183313 0.170457 -0.035975 -0.615337 0.052343 -0.139141 -0.038865 0.400352 0.651905 0.021551 0.201837 -0.494283 0.779927 0.190731 0.020534 -0.172549 0.211921 0.030248 0.306825 -0.302753 0.846795 0.057389 0.053540 0.381415 -0.132686 0.024571 -0.403758 0.084378 -0.341767 -0.648499 0.142818 0.316318 -0.389487 0.041261 0.039111 0.227568 0.381502 0.560475 -0.555623 -0.279552 0.223245 0.721557 0.273064 -0.599872 0.266783 0.179155 -0.678584 0.010986 0.383884 0.194036 -0.198001 0.298742 -0.156609 -0.739707 0.481299 -0.807610 -0.143868 -0.431709 0.092771 0.524001 -0.038781 -0.307669 -0.297168 0.046989 0.385088 -0.555917 -0.250545 -0.126431 -0.147061 0.326830 0.614726 -0.021653 0.366609 
12 -0.277119 0.211249 0.000171 0.001251 0.001167 0.111119 -0.001489 0.071136 0.157205 -0.116973 0.014285 0.275414 -0.080848 0.121582 -0.017373 -0.214008 -0.069819 0.136121 -0.048846 0.171911 -0.412832 0.179363 -0.015808 -0.257858 -0.088520 -0.329952 0.325925 0.115154 0.466024 -0.327298 0.069156 -0.581983 0.129179 0.137945 0.326496 -0.088844 0.371020 0.248930 -0.151064 -0.249006 0.195066 -0.300887 0.055005 0.126213 0.311639 0.145214 -0.591410 -0.075426 -0.067306 0.498647 -0.400164 0.064150 0.676854 -0.324201 0.846191 -0.579942 0.055150 0.400330 -0.137305 -0.008807 0.422230 -0.128656 -0.081056 0.146091 -0.507384 -0.636942 0.160402 -0.457687 0.455631 -0.451580 -0.180797 0.537342 -0.130359 0.492084 -0.471722 0.268221 0.218662 -0.414247 0.196367 -0.406188 -0.116756 0.006881 0.571193 0.081248 0.239572 0.238976 -0.136898 -0.747304 -0.775596 -0.208114 0.329344 -0.120220 0.796742 -0.092626 0.199961 -0.016394 0.427774 0.149903 0.161067 -0.322171 -0.445118 -0.884799 -0.253116 -0.204631 0.089831 -0.825531 0.227756 0.338218 0.183004 -0.082359 0.267731 0.664685 0.511852 -0.091037 -0.079400 -0.046563 -0.480353 -0.526816 -0.038252 -0.145046 -0.477841 0.099817 0.690972 0.128881 -0.128700 0.409053 -0.886119 0.627989 
13 0.132068 -0.062555 0.031849 0.013570 -0.095620 -0.019789 0.226917 0.047015 -0.149703 -0.179140 0.232647 0.357305 0.136088 0.127819 -0.018941 -0.266538 0.247567 0.146664 -0.030723 -0.107886 -0.068004 -0.061234 -0.154914 -0.111215 0.129109 0.037057 0.350823 0.131658 -0.055873 -0.429976 0.279115 -0.404815 0.542911 0.260454 -0.020438 -0.092104 -0.010238 -0.131930 0.145768 0.403153 0.701065 -0.227203 0.154390 -0.365337 0.029169 -0.443409 -0.031839 -0.080965 -0.301618 -0.697690 -0.304305 -0.391834 0.053737 -0.309095 0.015040 -0.171973 -0.413724 0.394581 -0.349724 0.238601 0.419735 -0.279324 0.432905 0.126449 0.006851 0.132970 -0.889561 -0.262261 0.451494 -0.150921 -0.484111 0.463105 0.208900 0.013124 -0.120561 -0.015018 0.487091 -0.348523 0.170501 0.206045 -0.317096 0.835682 0.485199 -0.910363 0.132962 -0.372366 -0.081953 -0.375416 -0.035408 -0.266761 0.435213 -0.076316 -0.184692 0.346802 0.155959 -0.127444 -0.113683 0.148305 -0.522396 -0.871408 0.165716 -0.075069 -0.407149 -0.046028 0.444571 -0.612862 -0.447478 0.357451 -0.063437 0.040997 0.389586 -0.206972 0.032702 0.184561 0.166987 0.738014 0.309952 -0.501799 0.394900 -0.272166 -0.297255 0.004618 -0.622780 0.014955 0.092913 0.307880 -0.175753 0.137860 
14 0.123884 0.165614 0.007554 0.010020 -0.085492 -0.054909 0.160123 -0.103316 -0.062859 -0.007906 0.084706 0.229616 -0.014112 0.339920 0.305455 -0.348534 0.048577 -0.007422 0.310878 -0.255007 -0.179701 0.206715 -0.803861 -0.539862 0.139499 -0.079868 0.536448 -0.202724 0.274357 -0.049443 0.111101 0.337625 -0.139276 0.431356 -0.095889 0.054850 -0.437358 -0.100179 -0.020112 0.339233 0.262320 0.164794 0.304907 -0.064481 0.574064 0.035234 -0.197816 0.033906 -0.382894 0.442843 -0.492518 -0.625936 0.300696 -0.294615 0.086016 -0.362461 -0.256433 0.336257 -0.242780 -0.437042 0.715435 -0.896045 0.332093 0.541772 0.291986 -0.199539 0.177873 -0.421478 0.428194 -0.757168 -0.676804 0.173885 -0.020381 0.184427 0.009175 -0.750275 -0.394176 0.133317 -0.144058 -0.223290 -0.362879 -0.039563 -0.053520 0.343249 0.155265 -0.288647 -0.469716 -0.346477 -0.316817 -0.335767 0.761074 0.278668 0.509690 0.769963 0.280226 0.435720 -0.234094 0.249746 -0.328448 -0.244319 0.191131 -0.276368 -0.249083 0.562596 -0.248842 -0.481964 -0.360207 0.585623 0.221479 -0.115451 -0.099840 -0.257687 0.320061 -0.176465 0.522865 0.133140 -0.849782 -0.165969 -0.099905 -0.249125 -0.321592 0.143181 0.629209 0.199035 -0.435879 -0.618941 -1.041944 -0.193811 
16 0.082811 -0.004164 -0.050071 -0.004041 -0.186176 -0.139425 0.180540 -0.118769 -0.063639 0.029261 -0.286684 -0.095617 -0.052967 -0.244500 -0.037093 0.114851 -0.253814 0.213251 -0.151405 0.278510 -0.595061 -0.240101 0.006198 -0.218138 -0.338034 -0.303612 0.378603 0.287833 0.102643 0.103693 -0.248120 -0.440597 -0.562439 0.171467 -0.125149 -0.110938 -0.081021 -0.240651 -0.181143 0.207526 0.076479 -0.002786 -0.055749 -0.120239 0.242638 0.288492 -0.069926 -0.004049 0.093821 -0.213145 -0.553032 0.338029 0.008278 -0.327373 -0.330481 0.137546 0.040595 -0.222051 -0.364644 -0.076767 -0.133965 -0.197131 -0.105058 0.300993 0.175893 0.069772 0.204898 0.650543 -0.163024 -0.008323 -0.487634 0.202541 -0.173950 -0.551117 0.203498 -0.188609 -0.055601 -0.209981 0.075269 0.389400 -0.002240 -0.067766 0.301817 0.338982 0.100229 -0.167930 -0.622929 -0.351005 0.352512 -0.138130 0.107893 -0.095302 0.042723 0.123861 -0.020115 0.176155 0.478200 0.367101 -0.941849 0.111345 0.044139 0.455608 0.659370 0.327675 -0.287545 0.665919 -0.429528 0.225789 -0.474246 -0.365599 -0.507656 0.252487 0.558349 0.104553 0.166540 -0.151066 -0.543683 0.254424 0.104704 0.424283 -0.557564 -0.567232 0.354193 0.812035 0.429468 0.027479 -0.679861 -0.460752 
18 -0.318173 0.773817 0.059319 -0.214186 -0.047780 -0.081043 -0.096889 -0.151004 0.045873 0.135881 0.239195 -0.065356 -0.194983 0.049851 -0.061725 -0.304303 0.171441 0.010129 0.023737 -0.234234 0.349132 -0.353679 -0.064664 -0.373522 -0.343327 0.129995 0.229910 -0.239108 0.430183 0.247670 -0.004216 0.384040 -0.448706 -0.361946 0.637142 0.218007 0.010638 -0.065895 -0.382985 -0.367374 -0.322999 0.315902 0.105446 0.001437 0.313655 -0.054226 0.394612 0.504919 0.122230 -0.112894 0.575845 -0.292804 0.640207 0.232804 -0.525796 0.119236 0.342710 0.268640 -0.008815 -0.345624 -0.436530 -0.238717 0.328084 0.387153 0.684770 -0.435687 0.270781 0.661037 -0.072543 0.108420 -0.498791 -0.628444 -0.197947 0.271149 -0.033612 -0.466918 -0.515620 -0.006932 -0.621856 -0.704628 0.679741 0.642078 -0.002850 -0.200741 0.928495 -0.296906 -0.432925 -0.279521 -0.682790 -0.189242 -0.150790 -0.757975 -0.093252 0.925994 0.400756 -0.141357 0.151815 0.354718 -0.072859 -0.078986 0.451242 -0.325973 0.388511 0.477496 0.115464 -0.168755 -0.073785 -0.265931 -0.012717 -0.383700 0.049559 -0.571165 0.016931 0.127838 -0.197810 -0.119707 0.071925 -0.817387 -0.546713 -0.323947 -0.942747 -0.168536 -0.243466 1.440308 0.742411 -0.111384 -0.064810 0.022062 
19 0.001013 0.124251 0.042461 -0.058014 0.191076 -0.216143 -0.220691 -0.165532 0.021656 0.337697 0.028270 -0.273028 -0.122396 -0.065593 -0.231750 0.310377 0.117565 0.170663 0.125228 0.014133 0.066193 0.064114 -0.237457 -0.210581 -0.373437 0.126948 0.023689 -0.182330 0.206967 -0.097661 0.163330 0.055502 -0.072526 0.025849 -0.234923 0.437224 -0.247571 0.062530 0.043777 0.249266 0.350213 0.242663 0.201810 -0.214148 0.043186 0.129266 0.172095 0.172599 -0.320391 -0.273641 -0.399215 -0.311685 0.531291 -0.188145 -0.497262 0.163437 -0.129131 0.084601 0.304059 -0.333491 -0.421506 0.031996 0.381931 -0.023445 0.203614 0.457293 -0.212634 -0.129420 -0.198179 0.310911 0.340462 -0.142072 -0.238178 -0.410801 0.710627 -0.167691 -0.402031 -0.363302 -0.112687 -0.248638 0.395305 0.457155 0.046674 -0.005196 0.124601 0.299254 -0.341698 0.106089 -0.119817 -0.081891 0.177767 -0.165552 -0.271750 0.284365 0.665493 0.302061 -0.104969 0.036592 0.387330 -0.202990 0.026571 0.259032 -0.237461 -0.212872 -0.220657 0.210467 -0.656145 -0.308955 0.351473 -0.045333 0.503496 0.203328 -0.647501 -0.797310 0.072671 0.047388 0.296821 -0.515903 0.157741 -0.054985 -0.523684 -0.145330 -0.320712 0.576315 -0.116974 -0.500409 0.287296 0.014442 
24 -0.079180 0.316270 0.036369 -0.054658 -0.148660 0.035364 0.102460 -0.078811 -0.167194 -0.171645 -0.175678 0.318242 -0.136635 0.067644 0.067469 -0.094180 -0.025292 -0.258228 -0.141929 -0.046532 0.101896 0.110054 0.159750 -0.098427 0.158976 -0.058285 0.239788 0.187915 0.015653 0.166482 0.056033 -0.068326 -0.429690 -0.366724 0.151455 -0.059515 -0.114926 0.155651 0.238976 -0.303907 -0.403044 0.180235 -0.051125 -0.161354 0.108742 0.038663 0.162857 -0.272909 0.307632 0.227589 -0.290655 -0.192709 -0.157871 0.472966 0.141551 0.079316 0.265141 -0.377928 0.154114 -0.365899 -0.416538 -0.336812 -0.157738 0.895799 -0.459984 0.131833 -0.037548 0.400633 -0.687481 0.326859 0.629394 0.118969 -0.443192 0.551355 -0.063542 0.305790 0.216653 0.640574 -0.506256 0.021457 -0.000195 -0.371477 -0.067226 0.040791 -0.031865 -0.578049 0.245159 -0.430041 -0.163049 0.192685 -0.443111 -0.024733 0.131845 0.013214 0.183617 -0.361456 0.262276 -0.178844 0.258097 -0.627330 0.633715 0.327128 0.040981 0.244381 0.064062 -0.693513 0.193534 0.076048 0.237150 -0.271203 0.037759 0.088954 0.040723 -0.235473 -0.150548 -0.225597 0.079007 -0.114219 -0.834229 0.225878 0.357119 -0.859018 0.400064 0.658855 0.146670 0.299601 0.446369 0.124137 
25 0.109057 0.060827 0.012002 0.012630 -0.028338 0.077872 -0.111607 -0.246892 0.087226 -0.243075 -0.112711 -0.053787 -0.016476 0.187946 -0.108440 -0.177641 0.243189 0.095075 0.222498 -0.272335 0.090852 0.183550 -0.198579 -0.209408 -0.036776 0.489961 0.227580 0.311822 -0.001257 -0.098878 0.334907 -0.413208 0.214250 0.371865 -0.502482 0.102582 -0.146907 0.290473 0.418340 0.293059 0.364500 -0.153246 0.450660 -0.108243 -0.387762 0.363426 -0.025935 -0.531444 0.249045 0.394193 -0.790474 -0.551309 -0.380311 -0.124089 0.190969 -0.274602 -0.343611 -0.285700 0.316197 0.192570 0.174277 0.118457 0.161955 0.294164 -0.208310 0.328774 -0.573814 -0.522863 0.120661 0.214784 0.275917 0.362666 0.048356 -0.175066 0.124043 0.688299 0.433856 -0.488354 0.440685 -0.138765 0.186462 -0.159935 0.292624 0.424350 -0.253462 0.376725 0.288643 -0.808655 0.224252 -0.328926 0.449924 -0.021309 0.168155 -0.360853 -0.437810 0.092475 -0.226100 -0.729738 0.123832 -0.168045 -0.109029 -0.300339 -0.544069 -0.348552 0.266651 0.257450 0.334322 -0.620287 -0.289349 0.197331 -0.420851 0.102119 -0.583175 -1.084259 -0.110744 -0.156719 0.119557 0.028902 0.222562 0.618077 0.010334 -0.411347 -0.187124 -0.478979 -0.192715 0.252370 0.353937 0.303993 
34 -0.151010 0.346433 -0.013380 -0.049944 -0.025485 0.044979 0.030878 0.016905 0.020185 0.112188 0.012013 -0.158814 0.170718 0.314025 0.307405 -0.307857 -0.133221 0.005819 0.144474 -0.103159 -0.094074 -0.038119 -0.244294 0.009733 -0.011424 0.004457 0.000099 -0.168522 -0.475597 0.296613 -0.059463 -0.340892 0.085859 0.419018 -0.024506 -0.606926 0.037766 -0.088431 -0.006621 0.191379 0.129486 -0.036094 0.493126 0.203014 -0.285281 -0.713465 -0.296195 0.646742 0.357177 -0.535922 -0.503244 0.049735 -0.466853 0.039845 -0.036840 -0.052180 -0.463037 -0.451805 -0.421452 -0.134998 0.581504 0.085829 0.130865 -0.025598 -0.105910 0.328742 -0.956553 -0.377247 0.238206 -0.059136 -0.301470 0.148734 0.536703 0.190969 -0.218815 0.260733 0.443054 0.255309 0.352921 -0.198535 -0.316766 0.298667 0.111155 0.349631 0.071537 -0.037166 -0.586865 -0.694360 0.639030 0.120335 0.085118 0.176359 -0.009346 0.229935 -0.575191 0.404465 -0.368682 0.630492 -0.343576 0.283159 -0.347565 0.913323 -0.101427 0.072036 -0.266336 0.015302 -0.528657 0.245335 -0.400439 -0.518458 -0.333102 -0.306587 1.087698 0.193202 -0.304151 0.074939 0.098080 0.776878 0.197751 -0.381446 0.629257 -0.273647 0.204646 -0.276880 0.226737 -0.069809 -0.828231 -0.619304 
36 -0.398689 0.885297 0.141577 -0.159032 -0.032853 -0.019596 0.128882 -0.078497 -0.069891 -0.090207 0.077194 0.253720 -0.113964 -0.045629 0.086855 0.241795 -0.041872 0.287038 0.090142 0.208095 -0.051082 -0.008195 0.051011 0.036874 -0.271244 0.141086 -0.295675 0.040839 -0.335900 0.053681 0.490827 -0.023434 -0.029692 -0.456740 -0.393368 0.269807 0.467650 0.500615 -0.228530 0.176736 -0.455892 0.180964 -0.157925 0.359400 -0.119114 -0.171294 0.365636 0.249754 -0.186782 -0.352795 -0.070515 0.336958 -0.257162 -0.429783 -0.024396 0.301289 -0.369106 -0.259521 0.475897 -0.215573 -0.080112 -0.131677 0.319001 -0.706445 0.596646 -0.008139 -0.033867 -0.353360 -0.313049 0.235977 0.457793 -0.266204 -0.146364 -0.192743 0.130076 0.175420 0.144693 -0.167806 -0.013303 -0.321247 0.390264 -0.295739 0.146521 0.043394 0.409537 0.994415 -0.076768 0.517834 0.506553 0.023863 -1.006874 -0.290632 0.302587 -0.631686 -0.229356 -0.214719 0.276425 0.038121 0.842292 0.500022 -1.066509 1.098733 0.314630 -0.536761 -1.180430 0.123540 0.149652 -0.997936 -0.033893 -0.099897 -0.045256 0.087735 0.316678 -0.259414 0.632573 0.235902 0.427556 -0.048721 -0.197069 0.379236 0.492889 -0.146590 -0.447467 -0.545088 -0.789723 0.550335 0.521135 -0.737784 
7 -0.004651 0.071142 -0.110913 -0.036176 -0.183877 0.166952 0.171052 -0.016042 -0.188640 0.216093 -0.110959 -0.348451 0.105017 -0.000555 0.266243 0.096829 -0.006416 0.003451 0.013405 0.248646 -0.085063 0.309530 -0.059918 0.088323 0.169177 -0.018662 -0.200088 0.021416 -0.477576 0.387078 -0.386474 0.489174 0.057915 0.018932 -0.178330 0.315353 -0.162599 -0.223331 0.571413 -0.000870 0.156793 -0.192456 0.235441 -0.078846 -0.210096 0.106496 0.359927 -0.178428 0.065855 -0.224966 -0.340510 -0.624588 -0.138249 0.085467 0.064438 0.239626 0.182694 -0.255560 -0.558958 -0.442938 -0.059186 -0.627470 0.162419 0.783249 0.133865 0.276615 0.110142 -0.008110 -0.609525 -0.098738 0.463331 0.704481 -0.041107 0.344257 0.299640 -0.226215 0.373250 0.549181 0.275832 0.055722 0.487126 -0.819132 0.499463 -0.389923 -0.563766 -0.014093 -0.221283 0.275658 0.401846 -0.016135 0.146836 0.327210 -0.142168 -0.146539 0.304676 0.358590 0.134952 -0.059093 0.178737 -0.013406 0.236821 0.298728 -0.634526 -0.118608 0.450749 -0.992882 -0.019107 0.861949 0.502313 -0.085695 -0.307444 0.072827 -0.622068 0.530340 -1.020548 -0.272010 0.175531 -0.375322 0.241603 -0.270512 0.694129 0.319936 0.416001 -0.337582 -0.264427 0.195723 0.175627 0.959725 
10 -0.404024 0.497036 0.134768 -0.167850 -0.179420 -0.101204 -0.152407 -0.336997 0.210693 -0.094817 -0.488320 -0.437470 0.112222 -0.185111 0.040436 0.379489 -0.263231 -0.203325 0.105536 -0.163620 0.278427 0.348085 -0.273741 0.260893 0.164560 0.384788 -0.069421 0.354469 -0.744192 -0.079571 -0.442554 -0.034897 0.125917 0.308211 0.533081 -0.182221 0.154902 -0.054504 -0.126005 -0.123621 0.570900 0.251583 0.202594 -0.262218 0.426298 -0.034291 -0.530585 -0.255546 0.078008 -0.037534 -0.124941 -0.456950 0.340286 -0.071764 -0.363216 -0.691982 -0.328793 0.603296 -0.252077 -0.130629 0.154843 0.197151 -0.292099 -0.073707 0.689760 0.168456 -0.181603 -0.526348 -0.068775 -0.415131 -0.578323 0.420596 0.030456 0.182437 0.187546 0.092804 0.081965 0.839057 -0.113166 0.284354 -0.192909 0.267200 0.152561 -0.303368 0.781527 0.118715 -0.643337 -0.066583 0.333468 0.708477 -0.123784 0.659356 0.148955 -0.795377 0.112702 0.376944 0.273711 -0.337753 -0.089595 -0.144064 0.484693 -0.361865 -0.829435 -0.145669 1.240361 -0.350043 0.196363 0.629649 0.042042 0.820512 0.317769 -0.432034 0.004713 0.613465 -0.575429 0.310159 0.006515 0.098520 0.519052 0.110568 0.458080 -0.421113 -0.185330 1.618652 -0.229267 -0.760159 0.254329 0.458310 
21 -0.022665 0.196504 0.003980 -0.084049 -0.343287 0.173654 0.283710 -0.068258 0.024058 0.001204 0.344248 0.311944 0.061959 -0.059955 -0.070441 -0.076112 0.071946 0.160241 -0.188142 0.118257 -0.585368 -0.202099 0.194992 0.285811 0.355950 -0.284333 -0.127287 0.244057 -0.109332 -0.402676 -0.069776 -0.400593 0.227593 -0.160240 0.236154 -0.004751 -0.788463 0.182295 -0.063640 0.339099 0.210605 0.478067 0.122507 -0.603333 0.496143 -0.387410 0.199650 -0.002968 -0.219371 -0.053247 -0.435303 0.377740 -0.255184 0.370289 -0.100445 0.547200 0.032447 0.024388 -0.428323 0.178703 -0.430618 -0.462162 -0.255223 0.205629 0.420878 -0.062023 -0.338213 0.031179 -0.338154 -0.476736 0.468398 -0.498729 -0.270168 0.548250 0.564287 -0.483427 0.511804 0.062913 -0.074246 -0.756454 0.634768 0.052462 -0.764751 -0.148469 0.002530 -0.667927 -0.232175 0.271815 0.020146 0.087031 0.129185 -0.181960 -0.446475 -0.102850 0.061153 0.499832 -0.048180 -0.473588 -0.039806 0.556470 -0.036972 -0.065452 0.364797 0.083210 -0.470459 -0.034177 -0.343279 0.085380 -0.867886 0.036827 -0.580022 0.382081 -0.378922 0.350717 -1.199422 -0.374943 0.252315 0.513960 -0.110104 -0.138709 -0.164285 -0.496114 0.140931 -0.119977 -0.003815 0.033255 -0.388353 0.702692 
26 -0.112546 0.258617 -0.153718 0.085792 -0.123546 0.207101 -0.024280 0.126963 -0.023852 0.048341 0.178235 -0.302389 -0.501446 0.299020 0.199791 -0.276119 -0.033649 0.389163 0.101388 0.077223 -0.000620 0.478325 -0.464142 -0.169021 0.026434 -0.036183 -0.117260 0.001751 -0.098419 0.215282 -0.540006 -0.604811 0.469527 0.137875 -0.061651 0.419744 -0.754669 -0.704055 0.217146 0.317235 0.039840 0.564183 -0.453880 -0.401126 -0.024920 -0.234863 -0.248801 -0.165096 -0.490502 0.250012 -0.614573 0.209205 -0.710322 0.423862 0.005621 -0.328302 -0.545019 0.119987 0.593988 -0.444940 0.654501 -0.284107 -0.815921 0.139630 0.072687 0.578113 0.261639 -0.406051 -0.503526 -0.757301 -0.210611 0.219550 -0.500871 -0.501058 0.295259 0.025876 -0.409630 0.007323 -0.493236 0.515946 -0.345364 -0.325591 0.162156 0.073526 0.638789 -0.181746 -0.357957 0.212141 0.704694 -0.093593 0.188031 0.037756 -0.122562 -0.483716 -0.471782 -0.014383 -0.030554 -0.779171 0.071556 -0.346171 0.136762 -0.386452 -0.354805 -0.133726 0.317361 -0.326917 -0.866353 0.374183 -0.056661 0.020047 0.912908 0.460981 0.079988 -0.018251 0.019566 0.617883 0.525470 -0.141413 0.022464 0.302756 0.581344 -0.207371 0.034544 1.041085 0.016383 -1.142034 -0.112217 -0.153815 
4 -0.614414 1.136066 0.168485 -0.181877 -0.335110 -0.117299 0.335230 -0.309588 -0.243316 -0.090231 -0.290412 0.439615 -0.155408 -0.513970 -0.032436 -0.330631 -0.055120 0.342583 -0.748602 0.620822 -0.159758 -0.152681 0.473140 -0.152824 -0.226475 -0.502385 0.419491 -0.028917 0.180179 -0.174735 0.253213 0.271828 -0.091407 -0.153450 -0.014450 0.012214 0.273354 0.143662 -0.199886 -0.606581 -0.067559 -0.484103 -0.234234 -0.735251 0.315733 -0.186722 0.097238 0.431550 -0.126016 0.090653 0.170866 0.290329 1.201369 -0.166973 -0.105084 0.390924 0.622278 -0.023632 -0.361340 0.116517 -0.273450 0.083997 0.539611 -0.335584 -0.460398 -0.534659 -0.054068 -0.035505 -0.166964 0.282508 0.547300 0.567033 0.041915 0.109834 0.289901 -0.406495 0.136981 -0.293810 -0.110892 0.215822 0.685009 -0.332580 0.162204 -0.022736 0.034152 0.029054 0.279196 -0.163535 -0.341625 -0.088839 -0.268963 0.119847 -0.029938 0.198095 1.205074 0.350847 -0.060724 -0.072337 0.931474 -0.077350 -0.110769 0.752156 0.204834 -0.546444 0.085353 0.355806 0.112389 -0.228023 1.326490 -0.338975 0.304595 0.160786 0.150223 -0.288282 -0.565139 -0.508688 0.035429 -0.929951 0.025432 -0.063587 0.281890 0.540199 0.531224 -0.133811 -0.251858 -0.178394 0.379283 -0.311646 
8 -0.423572 1.118137 0.073268 -0.072509 -0.615559 -0.004942 0.718080 -0.211193 0.235527 -0.765247 -0.071532 0.548854 0.387450 0.273288 -0.224735 -0.696581 -0.001369 -0.101821 -0.186941 0.390826 -0.209612 0.115213 -0.024616 0.236153 0.664691 -0.112327 0.337276 -0.103181 0.242213 -0.757217 0.198253 0.092680 -0.002991 -0.295323 -0.145636 -0.420301 0.066298 0.169895 -0.390285 -0.388041 -0.284250 -0.531113 -0.030508 -0.658515 0.309000 0.421191 0.111926 -0.332480 -0.171702 0.815403 0.095832 -0.152311 0.051651 0.060531 0.437877 0.378807 0.019262 0.301752 -0.107442 0.536165 -0.289182 0.136689 -0.299999 -0.441572 -0.692710 -0.634170 -0.080695 0.040569 0.594568 -0.027171 0.331506 0.007143 0.312840 0.278572 -0.042263 -0.948894 -0.063504 0.190717 -0.411051 -0.354935 0.055349 0.083498 -0.142012 0.530431 0.510092 -0.571171 1.025192 -0.244659 -0.689010 -0.507899 0.806203 -0.457130 -0.622230 0.440450 -0.660586 0.140275 -0.455356 -0.889599 -0.061550 -0.170568 0.418912 0.062649 0.514107 0.311687 0.021059 0.181009 0.311021 -0.141410 -0.087195 -0.423263 -0.697682 0.055086 -0.164651 -0.537589 0.550213 -0.266523 -0.634207 -0.116746 -0.384034 0.347452 -0.758570 0.070142 0.296174 -0.317115 -0.575999 0.548557 -0.008141 0.170204 
28 -0.510587 1.236609 -0.137663 -0.217200 -0.311631 0.019036 0.240096 -0.074110 0.010424 0.211573 0.025434 -0.249045 0.159033 -0.074601 -0.001902 0.117838 -0.103558 0.166349 -0.027885 0.192340 0.150616 0.346999 -0.347358 0.090270 0.192817 0.204693 -0.079246 -0.085348 0.030705 -0.058507 -0.321631 0.101629 0.133771 -0.174804 -0.113089 0.296700 0.040316 -0.216661 -0.314885 0.442638 -0.160386 -0.448793 -0.153424 0.276995 -0.226235 0.157384 0.150524 -0.074427 -0.375184 -0.055540 0.440842 -0.208303 -0.926461 0.309110 -0.138085 -0.192304 -0.180528 0.578413 -0.729080 -0.142310 -0.427949 -0.016432 -0.327815 -0.564148 0.280417 -0.310895 0.885963 0.547149 0.014843 -0.142864 -0.054140 0.339784 0.230807 -0.519132 0.496031 -0.408574 -0.674550 0.706200 -0.498430 0.138727 0.019288 -0.026105 0.156233 0.013363 0.224071 0.203475 0.610479 1.060827 -0.045903 0.055597 -0.211382 -0.489222 -0.307817 -0.322577 -1.149809 0.135006 0.338168 -0.220292 -0.540120 0.546119 -0.260679 -0.424074 0.558906 0.636977 0.022090 -0.463035 0.109968 0.037567 0.112047 -0.121350 -0.653583 -0.473955 -0.686861 0.462388 1.644566 -0.142813 -0.001269 -0.198667 0.367160 0.326338 -0.269885 0.092062 -0.453122 0.038388 -0.287912 0.256163 -0.160369 -1.094527 
17 -0.226011 0.865120 -0.027996 -0.061069 -0.107885 0.003660 0.132991 -0.268840 -0.083181 -0.019718 -0.016887 0.172156 -0.084195 -0.068593 0.068242 -0.749386 -0.017755 0.456625 -0.456313 0.336585 0.180067 0.220486 0.002490 -0.082748 0.126182 -0.011205 0.268966 0.018115 0.142683 -0.607600 0.237453 0.407094 0.254805 0.274908 0.044821 -0.191692 0.055872 0.073551 -0.042935 -0.229022 0.128676 -1.117393 0.546145 -0.597752 0.023970 -0.322876 -0.026422 0.349229 0.125490 0.723047 0.132136 -0.306547 0.755728 0.305043 0.294795 0.143997 0.438049 0.032277 -0.667643 0.392717 0.155705 0.171950 0.282172 -0.243476 -0.537209 -0.925923 -0.328618 0.060688 0.252275 0.022850 0.448455 0.860585 0.516634 0.496255 -0.146947 0.026991 0.135966 0.102457 0.216767 -0.220402 0.787852 -0.626561 0.052087 0.383092 0.100606 -0.299343 0.633739 -0.755458 -0.310406 -0.274851 0.059342 0.061623 -0.060330 0.265832 -0.239268 0.798073 -0.243786 -0.541918 0.653841 0.092221 -0.002135 -0.277709 0.120532 -0.075979 0.321695 -0.177461 0.531001 -0.315150 0.784002 -0.423830 -0.755680 -0.364650 -0.244727 -0.316519 -0.198397 -0.863590 -0.137047 -0.720506 -0.413395 -0.019721 0.104459 0.964647 0.314423 -0.583914 0.448436 0.292290 0.241175 -0.282174 
30 0.022265 0.066626 -0.079059 -0.049625 -0.297512 -0.080691 0.151226 -0.221298 0.121607 0.003952 -0.116556 -0.147758 -0.150789 -0.147204 -0.025271 0.055474 -0.190241 0.420396 0.165018 0.255278 -0.132280 0.548545 -0.335292 -0.145277 0.272691 0.071408 0.509945 0.394701 0.251732 -0.115882 -0.651072 -0.290623 0.340092 0.113721 -0.026011 -0.369557 0.143060 -0.028667 -0.291322 0.229236 0.187207 -0.175313 0.423362 -0.104065 -0.141776 -0.334487 0.539347 -0.290722 0.567673 0.602073 -0.175227 0.057953 0.166508 -0.192348 0.119313 0.252282 -0.054508 0.396432 0.608589 0.129781 0.455449 -0.031422 -0.474352 0.209079 0.203036 -0.481095 0.231233 0.195781 -0.117974 -0.006117 -0.266505 -0.224662 -0.196727 -0.115490 -0.523922 0.092453 -0.361888 0.626073 0.005737 -0.015813 0.671062 -0.052561 0.184626 0.121614 0.507411 0.490582 -0.522321 -0.533165 0.155221 0.261522 -0.597128 -0.186642 -0.208601 -0.135676 -0.934441 -0.332728 -0.669814 -0.712270 0.304215 0.229461 0.340596 -0.155985 -0.630948 0.290257 0.178661 -0.347316 0.559459 -0.425913 0.059457 0.209674 -0.093663 -0.073290 0.396159 0.052592 -0.103477 -0.175063 0.848334 0.521554 -0.363932 0.416314 0.641779 0.009357 -0.550544 0.593448 0.432175 -0.363770 0.301375 -0.257118 
6 -0.820605 0.902688 -0.118031 -0.284326 -0.671632 0.043545 0.602442 0.324523 0.055842 -0.638777 -0.089681 0.564779 -0.382727 -0.162468 0.495734 -0.104064 -0.186173 0.553606 0.295083 0.166114 0.060406 0.700708 -0.163150 0.129421 0.112324 0.190317 0.136966 0.325064 -0.037636 0.596917 -0.497053 -0.017874 0.183244 -0.257861 -0.171952 0.200217 0.127683 -0.138917 -0.819879 -0.441802 0.153571 0.059590 -0.073702 0.166527 0.626201 0.226083 0.756300 0.042736 0.102422 0.256653 -0.328288 -0.050695 0.268427 -0.211077 -0.187663 -0.366621 -0.032533 0.567133 0.283174 -0.496912 0.195923 -0.541359 0.160516 -0.548958 0.644604 -0.638879 0.626931 -0.503790 -0.030606 0.005677 -0.224843 -0.163458 0.010523 -0.448425 -0.543546 -0.101901 0.009550 0.274829 -0.124796 -0.417944 -0.318776 0.233134 -0.185938 0.193177 0.002232 -0.253795 -1.262363 0.516825 0.514666 0.394480 -0.876669 -0.461194 0.431604 0.053288 -0.433205 -0.635566 0.232331 0.113765 0.058018 -0.110112 -0.604349 -0.085998 -0.367214 0.063418 -0.512830 -0.805838 0.497410 0.371196 -0.193304 -0.459221 -0.321852 -0.192458 -0.236203 0.976296 -0.284164 0.279965 -0.002814 0.387932 -0.269248 -0.347655 0.366209 0.780406 -0.200048 0.754850 0.468532 -0.289285 -0.373693 -0.139166 
35 -0.330246 1.176640 0.060205 -0.270512 -0.532577 -0.166907 0.464157 -0.215961 -0.083501 0.200641 -0.053009 0.178466 -0.097447 -0.213655 0.129211 0.305006 -0.108453 -0.291040 0.079040 -0.014496 -0.336783 -0.183573 0.045610 -0.143427 0.265246 -0.653685 -0.032306 -0.188250 0.004706 0.033150 -0.029641 0.454151 0.061778 -0.063744 -0.155535 -0.218331 0.188291 0.484102 0.091401 0.195957 0.131324 0.194727 -0.332223 0.242071 0.063534 -0.225169 0.013579 -0.270391 0.166888 0.324033 0.321671 0.647357 0.047257 -0.753038 0.223211 0.314129 0.476707 -0.150204 0.308985 0.125574 0.187918 -0.144748 0.394865 0.233670 -0.368601 -0.094813 0.154126 -0.050140 0.009946 -0.223296 -0.034533 -0.716322 0.057978 0.261032 -0.223227 -0.341300 -0.182798 0.033126 -0.045425 0.151991 -0.060113 -0.133272 -0.419309 0.027655 -0.834401 0.734654 0.433398 0.410879 -0.468678 0.222745 -0.122532 0.652371 0.408199 -0.256819 0.931520 -0.265673 -0.613472 0.315494 0.476677 0.414852 -0.356627 0.754955 -0.305331 0.054421 -0.613818 0.427289 0.440986 -0.209285 0.568179 0.522569 0.464877 -0.082717 0.568692 -0.147895 0.251502 -0.210492 0.140182 0.110831 0.440521 0.071115 0.685660 -0.026792 0.447901 -1.399489 -1.263651 -0.593905 -0.299233 -0.165656 
23 -0.366994 1.333181 -0.033704 -0.099103 -0.360231 0.112602 0.407881 -0.042365 0.099843 -0.160397 0.228973 -0.101966 0.142672 -0.377471 -0.164524 0.150859 0.142382 0.290407 0.523813 0.174750 0.074416 -0.213682 0.084296 0.413804 -0.242379 0.302785 0.018387 -0.271639 0.357805 0.318490 -0.306800 0.402842 0.264903 0.418559 0.205725 0.397894 -0.358841 -0.615790 0.040771 -0.543647 0.299943 0.174904 -0.248888 -0.065871 0.635652 0.506909 0.385205 0.420170 -0.568138 0.147571 0.030684 -0.380117 0.603919 0.363870 0.088208 -0.180570 0.140346 0.272302 0.106287 0.059128 -0.283352 0.170132 0.092439 -0.635593 -0.104764 0.032768 0.293856 -0.397101 0.268135 -0.078584 0.171361 0.039400 -0.246761 -0.909229 0.304155 -0.352716 0.011691 -0.510195 0.208024 0.263782 -0.380440 0.099596 -0.516282 -0.468427 -0.980431 -0.572092 -0.688688 0.918788 0.929920 0.157532 0.273977 0.109935 -0.224250 0.266863 0.382110 -0.097993 0.202612 -0.364155 0.413466 0.240386 -0.234766 -0.645792 -0.313779 -1.332370 0.484692 0.718302 -0.198936 0.466772 -0.201322 0.460127 0.345145 0.500689 -1.010942 0.247390 -1.097868 0.181642 -0.369952 -0.029105 0.169551 -0.900985 -0.160987 1.062154 -0.774415 0.030784 0.620180 -0.250325 0.655989 0.574819 
31 -0.251130 0.557714 0.037414 -0.171305 -0.516760 -0.188541 0.334934 0.037710 -0.007322 -0.337339 0.021025 0.388187 -0.552245 0.089876 0.215319 -0.166764 0.281147 0.203882 -0.232876 -0.051993 -0.235507 0.393406 0.230629 -0.281002 0.051136 -0.303699 0.296055 0.475389 0.374079 0.421968 -0.034184 -0.361364 0.044872 -0.382497 -0.692899 0.324340 0.049799 0.089196 -0.371848 -0.351853 0.213576 0.211367 -0.424435 0.068673 0.000226 0.234272 0.512996 -0.485195 0.278101 -0.136298 -0.080309 0.583903 0.430314 -0.625128 -0.329431 0.073580 0.278307 0.077388 0.676407 -0.069585 0.016777 -0.320797 0.452507 -0.189744 0.069287 -0.133079 0.561796 -0.456632 -0.007450 0.556294 0.030145 -0.394498 0.207261 -0.553389 -0.392914 0.180961 0.429864 -0.818071 0.210420 0.131608 -0.285662 0.677493 -0.115140 0.106863 -0.866814 0.089912 -0.620641 0.539736 -0.422810 0.114908 -0.652096 -0.211269 0.452158 0.362543 1.038220 -0.950029 -0.239384 0.590071 -0.051346 -0.576773 -0.481262 0.379119 -0.378179 0.172894 -0.517552 -0.154846 0.278643 0.313194 0.614601 -0.282244 0.683142 0.105485 -0.348120 0.526400 -0.575462 0.377670 0.421873 0.265223 0.555955 -0.254694 0.314334 0.804600 0.258384 -0.354245 0.132436 -0.587947 -0.414317 0.083653 
22 -0.512797 0.727087 -0.008310 -0.104185 -0.299203 -0.091656 0.132469 -0.211471 0.206307 0.050839 0.120451 -0.254017 0.033852 0.521965 0.471720 -0.660522 0.381608 0.066426 -0.751979 -0.035020 -0.418989 0.409315 -0.114047 0.163044 -0.245454 0.382463 0.214049 0.420222 0.123902 -0.005383 -0.230075 -0.160515 -0.024173 0.589038 -0.168431 0.020211 -0.085194 -0.558095 -0.058042 -0.064023 -0.056119 0.416748 0.415728 0.209839 -0.294842 0.193735 -0.400880 0.335119 -0.545512 -0.618511 0.434334 -0.313213 0.570914 0.839929 -0.213517 0.065858 -0.395128 0.404507 -0.733232 0.484824 -0.270578 0.485225 -0.260093 -0.588716 0.288737 0.331479 0.226095 -0.467772 0.666620 0.335008 0.384951 0.780171 0.250046 -0.243158 0.646122 0.268287 0.428926 -0.054612 0.754190 0.346474 -0.185174 -0.460806 -0.434159 0.086790 -0.478194 -0.083359 0.060693 0.643093 0.273635 0.155453 0.269794 0.610810 -0.018425 0.192906 0.175677 0.898008 0.090575 -0.226459 0.016795 0.731339 0.737554 -0.541960 0.252600 -0.183758 0.758457 0.732883 -0.374078 0.367165 0.396144 0.597184 -0.096027 0.519073 -0.773477 0.212779 -0.605784 0.216801 -0.426476 0.846079 0.520012 -0.170565 0.200644 0.789386 0.204002 -0.479080 0.151396 -0.088344 0.779468 0.051874 
29 -0.239309 0.672298 0.051708 -0.153565 -0.480559 -0.135002 0.308006 -0.045790 0.059948 -0.080585 0.103225 0.050806 -0.344679 0.194700 0.069524 -0.192649 0.092056 -0.002257 -0.200792 0.152741 -0.294704 -0.106935 0.004834 -0.326792 0.108479 -0.422014 0.292730 0.216519 0.128546 -0.255710 -0.233687 -0.602190 0.237355 -0.081849 -0.015435 0.078085 0.288410 -0.132476 0.027438 0.150099 -0.295052 0.770621 -0.279888 -0.004598 -0.189502 -0.387323 -0.001704 -0.178141 -0.156879 -0.078498 0.159888 0.629794 -0.325088 0.353976 0.515621 0.532425 -0.239132 -0.115219 0.601632 0.322904 -0.059486 0.228684 -0.308420 -0.311334 -0.251052 0.318647 0.042240 0.398870 0.254413 0.216408 0.216735 -0.129885 -0.329709 -0.369281 0.006439 0.368411 0.210777 -0.382567 -0.462205 0.507322 0.108485 -0.126145 -0.028259 -0.352705 0.023232 0.342847 0.747928 0.148244 0.141181 -0.076064 -0.436887 0.005560 0.125912 -0.596866 -0.071790 -0.628683 -0.001584 -0.910770 0.386248 0.653321 0.256876 0.244632 0.501542 -0.356222 0.412578 0.931176 -0.166682 -0.671539 -0.156218 0.743592 0.661947 0.645579 0.307854 -0.003496 -0.044377 0.702899 0.690576 -0.051884 0.256974 0.733063 0.621654 -0.169555 -0.306076 -0.075715 -0.250435 -0.217382 0.729214 -0.505403 
33 -0.228625 0.675638 -0.107926 -0.077133 -0.386900 -0.183168 0.511708 -0.133830 0.090665 0.160514 0.227089 0.030629 0.052486 0.191018 0.024451 -0.196905 0.218866 -0.095952 -0.325032 0.122472 -0.749426 -0.079252 0.097323 0.426694 0.162754 -0.508332 -0.023463 0.107418 0.077785 -0.196353 -0.160248 -0.455575 -0.192280 0.232446 -0.414030 -0.343669 -0.239617 -0.305992 0.091575 0.123880 0.071022 0.166562 -0.127831 0.433769 -0.534089 -0.115046 -0.268879 -0.408561 -0.350072 -0.149288 0.287477 0.551201 0.152176 0.054547 0.611041 0.897951 -0.608429 -0.036292 0.567216 0.819403 0.055717 0.408074 -1.266226 0.119693 -0.185382 0.311724 0.190518 -0.322821 0.000148 -0.223822 0.316450 -0.070119 0.313870 -0.186395 -0.086003 0.222100 0.480168 -0.249031 0.927074 0.222440 -0.034967 0.056020 -0.440239 0.332517 -0.393440 0.557736 -0.020685 0.888577 0.071784 0.113450 0.137794 0.638706 -0.284115 -0.011580 -0.328944 0.633012 -0.318238 -0.276700 0.426575 0.557978 0.090694 0.242059 -0.119913 -0.418776 -0.322583 0.711963 -0.240475 0.128747 0.127934 0.601814 0.515467 0.590099 -0.013803 0.018559 0.163685 -0.290368 0.263600 0.932021 0.538512 0.239455 -0.112063 -0.227985 -0.201472 -1.462694 -0.256509 0.050085 0.494681 0.374811 
15 -0.247184 1.087675 0.178986 -0.203554 -0.176612 -0.084169 -0.022454 -0.315782 -0.079014 -0.104165 0.226788 -0.145754 -0.288223 0.134978 -0.320289 -0.113197 0.306099 -0.091223 -0.051133 -0.329842 0.463254 -0.423191 0.121116 -0.531694 0.217042 -0.233374 0.454496 0.191127 0.338318 -0.047420 0.193651 -0.785947 -0.028610 0.086515 0.038188 -0.082910 -0.054453 -0.326261 0.100335 -0.106586 -0.533628 0.236427 -0.307903 0.052222 -0.386936 -0.680631 -0.487441 0.052295 0.136649 -0.341941 0.622608 0.171877 -0.294748 0.541646 0.258365 0.116750 -0.397943 -0.387509 0.018227 0.397709 0.304355 0.013627 -0.388361 -0.162430 0.177567 0.134491 0.453073 0.220908 0.554162 -0.165314 -0.735564 0.264877 0.414984 -0.348268 0.258387 -0.026644 0.474528 -0.567249 -0.099043 0.919984 -0.218149 0.766215 0.410630 -0.318901 0.357690 -0.296781 0.072188 0.024564 -0.250284 -0.336092 -0.076377 0.009162 -0.064312 0.538498 0.294933 -0.130097 -0.053043 0.200689 -0.765387 -0.032270 0.233376 -0.213460 0.714550 0.184401 0.876607 0.508223 -0.996899 0.836341 0.098755 0.365093 0.818124 -0.158193 0.449047 0.720885 -0.335792 0.736134 0.241011 0.123999 0.669155 -0.455967 -0.021713 0.252489 -0.252827 0.200474 0.794614 -0.113711 -0.468556 -0.543364 
32 -0.122246 0.371233 0.128516 -0.105860 -0.293325 -0.084911 0.198439 -0.372170 -0.071395 -0.024462 0.260424 -0.143014 -0.039827 0.470283 -0.100831 -0.242566 0.365013 -0.135833 -0.265690 -0.144196 -0.128371 0.212263 0.059285 -0.279041 0.343497 -0.112983 0.303470 0.321091 0.312350 -0.170622 0.129597 -0.298080 -0.081885 -0.135762 -0.391228 -0.561965 -0.103922 0.107026 0.272723 0.107607 -0.352407 -0.018761 0.263511 -0.131055 -0.849266 -0.319544 0.058625 -0.357626 0.619425 -0.239383 0.446018 0.177283 0.043453 -0.179888 -0.153351 0.642644 0.004692 -0.346314 0.463196 0.569849 0.325944 0.155390 -0.278560 0.605124 -0.119317 0.278445 -0.083359 0.123621 0.146451 0.426757 -0.207696 -0.541960 0.206953 0.341165 -0.292310 -0.168804 0.069120 -0.172789 0.488473 0.224972 0.161471 0.447255 0.120909 0.084054 0.085972 0.031440 0.187213 -0.530756 -0.850589 -0.329844 0.321733 -0.047767 -0.701033 1.032540 0.241991 -0.225021 -1.235512 0.491820 -0.466218 -0.456236 0.821505 0.331667 -0.049665 0.823526 -0.102334 0.165817 -0.304942 0.149130 0.320791 -0.208843 0.415407 -0.063201 0.608967 -0.192364 -0.322431 -0.001863 0.462273 1.092348 -0.040115 -0.274440 0.105318 0.042723 0.287635 -0.860427 0.239489 -0.046655 -0.234241 0.202886 
37 -0.348998 0.588157 0.109797 -0.152300 -0.490686 0.146623 0.357710 -0.209701 -0.065369 -0.228843 0.137393 0.072240 -0.146567 0.167917 0.197504 -0.194034 0.032364 0.353824 -0.199794 0.161786 -0.271176 0.324479 0.071050 -0.043469 0.088022 0.076282 -0.162207 0.101818 -0.272988 -0.118645 0.205631 0.124780 0.477356 -0.263569 -0.303621 -0.071607 -0.258891 0.460386 0.096067 0.302827 0.100935 0.196818 0.105596 -0.875325 -0.036730 -0.289008 0.450028 -0.056450 0.253484 0.065687 -0.314930 0.537488 -0.285853 -0.539552 -0.662603 0.184573 0.332129 -0.259295 0.535058 -0.029721 0.472836 0.029467 0.664723 -0.068034 -0.097606 0.213377 -0.949044 -0.242331 -0.238807 0.334503 0.229189 -0.911985 -0.305653 0.360112 -0.316149 -0.098229 -0.324601 -0.257597 -0.203983 -0.392143 0.258337 -0.202564 -0.408980 0.040105 0.062244 -0.059274 0.470743 -0.790092 -0.107970 -0.153011 0.117686 -0.216423 -0.406236 0.000348 0.285086 -0.491144 -1.132807 -0.076654 0.275729 -0.249014 0.034423 0.629344 -0.242166 0.270795 -0.738557 0.246873 0.368545 -1.262606 -0.125673 -0.534470 -0.022024 -0.141188 0.530769 -0.829112 -0.303361 -0.022860 0.571706 0.250456 -0.511734 0.317940 0.744460 -0.057877 0.392894 -0.604074 -0.606684 -0.626814 0.062694 -0.134542 
27 -0.426409 1.159007 -0.044290 -0.077508 -0.257368 0.135001 -0.171726 -0.115619 0.319133 -0.037533 0.150034 0.270639 -0.474329 0.483570 0.124296 -0.862797 0.295011 0.073439 -0.160810 -0.182855 -0.056496 0.205113 -0.141974 -0.854806 -0.034496 -0.030170 0.863552 0.174791 1.271011 0.135911 -0.131610 -0.596843 0.140914 0.342596 0.085942 0.154552 0.131011 0.044759 0.009880 -0.166381 -0.330332 0.129369 0.307490 0.534813 -0.176848 0.215539 -0.221272 0.123072 0.217435 0.718633 -0.045893 -0.287258 0.012525 0.910144 0.853428 -0.391134 0.375718 0.028161 -0.508051 0.068102 -0.338841 -0.107653 0.267101 0.204257 -0.941620 -0.516834 0.737821 0.143130 0.856029 0.209426 0.451936 0.577543 -0.004587 0.024548 0.215328 0.513483 0.306924 -0.377281 -0.177889 -0.098015 0.062899 -0.318076 0.060612 0.459683 -0.863323 -0.086963 0.588655 -0.451021 -0.697328 -0.321373 0.145903 -0.288135 0.890887 0.283472 0.118898 -0.194692 0.177820 -0.460538 0.028151 0.495093 0.128415 -1.155228 0.438499 0.216947 0.700213 0.034111 -0.011618 0.209693 0.360670 0.233999 -0.188424 0.693557 -0.504526 -0.367378 -0.419249 -0.010710 -0.252456 -0.137456 0.106514 -0.166368 0.064124 0.471510 0.570267 -0.251701 0.470931 0.256037 -0.421376 -0.300604 
39 -0.280495 0.758167 -0.022078 -0.062676 -0.240387 0.059715 0.264655 -0.180951 -0.175307 -0.282984 0.131400 0.088049 -0.269385 0.093386 0.154675 -0.458052 0.118942 0.445005 -0.380665 0.017855 0.083721 -0.012061 0.127897 -0.112136 0.003063 -0.055495 0.281247 0.360356 -0.043713 0.442496 0.120968 -0.675194 -0.269658 0.010794 -0.504121 -0.105322 -0.267321 -0.522304 -0.320901 -0.190073 -0.503092 -0.159035 -0.343233 0.004798 -0.308230 -0.480771 -0.093709 0.189895 0.014793 -0.461799 0.217036 0.327272 -0.183625 0.162931 -0.268840 0.245933 -0.559893 -0.301092 -0.132677 0.170852 0.538347 -0.331246 -0.495727 -0.321312 0.707364 -0.153946 0.599894 -0.339383 -0.005403 -0.262142 -0.578736 0.482508 0.596878 -0.523531 0.166384 -0.222588 0.570781 -0.299336 0.443647 0.634191 -0.042133 0.230906 0.307754 0.353998 0.489106 -0.213959 -0.876533 0.419278 0.479773 -0.209161 -0.406079 -0.027826 -0.117932 0.620592 -0.186613 0.427242 -0.076704 0.419413 -0.585335 -0.061257 -0.228401 0.536226 0.487754 0.253737 -0.133862 0.094842 -0.817366 0.885638 0.320222 -0.501884 0.112519 -0.320129 0.439450 0.899625 -0.245649 0.248556 0.131622 0.561951 0.432885 -0.354526 0.240748 0.464494 0.026133 0.006404 0.677079 -0.120212 -0.526623 -0.755678 
20 -1.021506 1.219767 0.567536 -0.406140 -0.483160 0.008923 0.142444 -0.287501 0.295182 -0.084077 0.224195 -0.248938 0.058415 0.547796 0.520319 -0.374392 -0.241840 0.032920 0.128793 0.034113 0.138475 0.394480 -0.428196 -0.298319 0.056364 0.292583 -0.181780 -0.266025 -0.196464 -0.255025 -0.078122 0.712306 0.282520 -0.087345 0.558748 -0.531269 0.624824 0.448209 -0.331001 -0.037718 -0.409833 0.259579 0.715822 -0.159349 0.058185 -0.417860 -0.008795 0.712199 0.447305 0.142998 0.471516 0.070788 0.175801 -0.214431 -0.326959 -0.121063 0.255656 0.137836 -0.047774 -0.055623 0.535849 0.385506 0.698104 -0.452458 0.144928 -0.242855 -0.763887 0.046089 0.773347 0.208949 -0.499534 -0.815157 0.073611 0.770976 -0.694295 -0.216164 -0.616935 0.323376 -0.365037 -0.703989 0.187561 -0.072890 -0.121067 0.040921 0.852148 0.175639 0.442093 -1.021761 -0.529033 -0.126789 0.090165 -0.298034 -0.064356 0.318867 -0.255695 -0.379969 -0.893379 0.312361 0.090026 0.478464 0.352213 0.097590 0.239845 0.608720 -0.062066 0.313728 0.376029 -0.927341 -0.227926 -0.255493 -0.242649 -0.397648 1.126365 -0.105329 -0.154669 0.291816 0.065585 0.280689 -0.601800 -0.135975 0.486907 0.639970 0.405413 -0.053135 -0.252105 -0.316203 -0.167078 -0.271017 
38 -0.316353 1.156362 -0.113949 -0.134853 -0.197448 0.083004 0.207666 -0.191256 -0.086930 -0.031842 -0.094346 -0.169253 -0.094882 -0.138420 -0.031824 0.060636 -0.042211 0.417821 -0.011460 0.023747 -0.081024 0.239491 0.323026 0.355717 -0.136432 0.177991 -0.217385 0.083169 -0.042444 0.468661 0.162808 -0.146825 -0.164841 0.056118 -0.421753 -0.161761 -0.637169 0.064668 -0.062002 -0.182576 0.030075 -0.292602 -0.084885 -0.264194 -0.104771 0.236138 0.087050 0.091101 0.479638 0.232345 -0.208297 0.605963 -0.161223 -0.238257 -0.754922 -0.333097 0.283984 -0.457211 0.608111 -0.042695 0.450512 0.553768 -0.166347 -0.269985 -0.141468 0.138183 -0.160313 -0.388310 -0.435621 0.380524 -0.052594 -0.746754 0.058906 -0.314466 -0.540718 0.346768 -0.417761 -0.392347 0.498617 -0.191359 -0.547024 0.248250 -0.771921 0.845236 -0.531300 -0.477957 -0.545147 -0.381335 0.252499 0.259263 0.036102 -0.118669 -0.368539 0.458055 -0.150467 -0.188033 -0.685770 0.807572 -0.423679 -0.399916 -0.479859 -0.045349 -0.213707 0.142448 -0.994445 0.502179 0.336450 -0.462384 -0.390858 -0.939512 -0.167268 -0.322348 0.324124 -0.389173 -0.210685 -0.659271 -0.222561 1.274570 -0.348750 -0.317504 0.093217 0.127727 0.317845 -0.397646 0.768340 -0.734378 -0.570194 -0.338851 
