35 128
1 -0.475703 0.764844 0.041583 0.080192 0.086921 0.073068 0.110995 0.044852 -0.020834 0.011731 0.075749 -0.101418 0.015224 0.075508 -0.058195 -0.054254 0.111231 -0.047693 0.070114 0.107619 -0.143693 -0.154941 0.077874 -0.126820 0.153342 -0.316185 0.208349 -0.057950 -0.234241 -0.300499 -0.033084 0.404199 -0.015058 -0.294068 -0.458105 0.414582 0.115889 0.270333 0.160926 0.002304 0.092775 -0.608915 -0.332561 -0.422267 0.223765 -0.327042 0.227881 0.217923 -0.667043 -0.441939 -0.238550 -0.299770 -0.316470 -0.122974 0.111243 -0.010475 0.029462 -0.676509 0.589499 -0.481564 0.031712 -0.176337 -0.524418 0.057243 -0.132942 -0.263927 0.163398 0.001669 -1.100835 -0.395105 -0.514407 -0.504524 -0.025670 -0.426070 -0.153179 -0.014979 -0.463531 -0.274555 -0.680696 0.325612 0.340528 0.339732 0.115239 -0.251040 0.520263 0.235392 0.232221 -0.505764 0.337773 0.220939 -0.521361 0.406671 -0.123866 -0.169429 0.874717 0.300631 -0.610864 -0.619250 -0.129884 -0.418501 0.448067 0.061148 -0.203159 0.576390 -0.662717 -0.843480 0.874086 0.793848 0.697049 -0.155683 -0.837197 0.655831 0.227457 0.434365 0.383581 0.298793 0.619842 -0.541641 0.915578 0.403331 0.329800 0.480888 -0.628242 0.282440 0.003632 0.354713 0.059435 -0.632492 
3 -0.236636 0.408388 0.031087 0.052986 -0.024522 -0.005182 0.028022 0.052006 -0.046972 -0.071909 -0.065760 0.014099 0.110951 0.005566 0.109304 -0.060845 -0.011112 -0.057028 0.021974 0.083002 0.129692 -0.047815 0.149464 -0.075617 0.100239 0.119191 0.038096 0.008357 0.223159 -0.271535 -0.239367 -0.002017 -0.113926 0.014999 0.133494 -0.181082 -0.033180 0.082857 0.380975 0.318587 -0.502634 -0.149639 0.307247 0.073189 -0.252868 0.088884 0.091667 0.032621 0.169844 0.428873 -0.022711 0.096009 0.233728 0.203217 0.041996 -0.137953 -0.130153 -0.492026 -0.553020 0.278174 -0.042020 0.272736 0.544787 -0.331027 -0.054966 0.021380 -0.406461 -0.325735 0.623394 0.653044 0.457462 -0.200821 0.077892 -0.018937 0.089574 -0.289855 0.278616 -0.198891 0.655517 -0.327994 -0.156852 0.344561 -0.003916 0.298646 -0.647535 -0.075753 0.389075 -0.112563 -0.752638 -0.202556 0.459621 -0.132071 0.568773 -0.252766 0.020251 -0.058231 0.140700 -0.029696 -0.080334 0.151516 0.242166 0.097629 -0.353275 -0.506800 0.010948 0.593743 0.180824 -0.158875 -0.411504 -0.000202 0.797171 -0.835844 0.041074 -0.313925 -0.726081 -0.309617 -0.106180 -1.014250 -1.167755 -0.158573 -0.589152 0.074029 0.021125 0.017297 -0.070273 0.231906 0.152769 -0.198381 
2 -0.389020 0.641462 -0.008483 0.089250 -0.024928 -0.069861 -0.073780 0.085745 0.051137 0.059667 -0.047590 -0.086059 0.203237 0.084086 -0.188917 -0.089726 0.233799 -0.199292 -0.176168 -0.346653 0.203723 -0.371389 0.198841 -0.214214 0.084205 0.272538 0.429728 -0.292658 0.064519 0.369726 -0.324770 -0.144463 -0.486156 0.413368 0.153111 0.155715 0.144735 -0.259935 0.260422 -0.062275 -0.262311 0.142372 -0.092211 -0.230789 -0.415145 0.789095 -0.393539 0.083889 0.172582 0.189552 0.008144 0.100339 -0.141074 0.230329 -0.022596 0.011321 -0.341057 -0.668048 -0.288345 0.270290 0.641296 -0.134246 0.400791 0.253290 -0.276219 0.024384 -0.696782 -0.333993 0.084164 0.586604 0.855039 -0.291285 0.346573 0.105500 0.403811 -0.396954 -0.419329 -0.371520 0.239728 -0.392549 -0.256292 0.545840 0.492535 -0.167507 0.309533 -0.414830 0.882513 0.153701 -0.972433 -0.674153 -0.168985 0.445097 0.517644 -0.575474 -0.894232 -0.135196 -0.279556 -0.147993 -0.094059 0.242752 -0.075669 -0.297171 -0.528170 0.011401 -0.397655 -0.238312 0.406879 0.281403 -0.295152 -0.772873 0.348894 -0.774541 0.266444 0.085146 0.152244 -0.097614 -0.673418 0.316111 -0.583680 -0.035666 0.306226 -0.052865 0.247010 -0.356549 -0.265551 -0.132530 0.491792 -0.137993 
11 -0.153028 0.281474 -0.001955 0.019613 0.015235 -0.034833 -0.019181 -0.003837 -0.043408 -0.035562 -0.034372 -0.028157 0.045833 -0.032600 0.031208 -0.024645 0.070008 0.047952 -0.062389 -0.056682 -0.022611 -0.116865 -0.042086 -0.113711 0.139801 0.138887 0.063848 0.059293 -0.033922 -0.149221 -0.026653 0.017727 0.035480 0.060594 0.143381 0.074345 0.024729 -0.081317 0.345703 0.074142 -0.013902 -0.145392 -0.075849 -0.108911 0.151109 0.141570 0.118552 -0.061195 0.067106 -0.139454 -0.070338 -0.143707 -0.255231 0.061260 0.259057 -0.245878 -0.409205 -0.171706 -0.120509 -0.155211 0.132887 0.044448 -0.042033 0.111313 -0.009482 -0.317111 -0.501095 0.145629 0.066427 -0.221178 -0.362286 -0.155253 0.070005 -0.191186 0.106309 -0.326660 -0.065802 -0.091399 -0.202398 -0.458204 -0.443828 0.018981 -0.148546 0.048604 -0.605577 0.754076 0.135900 0.460738 0.312553 -0.365176 -0.057674 -0.283169 -0.526721 0.338576 0.573218 0.084804 -0.507026 -0.656572 0.267918 0.147071 -0.418884 -0.128672 -0.224314 -0.686407 -0.742855 0.121959 0.669499 0.606906 0.649480 -0.062676 0.423585 0.328594 -0.436384 -0.276756 0.345871 -0.144654 -0.384818 -0.288004 -0.153808 0.495825 -0.790255 0.859767 -0.896298 -1.022454 0.377086 0.526361 0.800538 0.234774 
6 -0.450260 0.671411 -0.082344 0.048020 -0.222492 0.001001 0.248772 0.358271 -0.097382 -0.113004 -0.383568 0.027016 0.057106 -0.029370 0.269731 -0.070970 -0.159480 0.033433 0.320383 0.169504 -0.235540 0.349300 -0.588737 0.313945 0.115162 -0.308849 -0.048771 0.351689 -0.245588 0.365906 0.096108 0.322083 0.603878 0.229895 -0.312630 0.210160 -0.427443 -0.174752 -1.049024 -0.587528 0.792175 0.226815 -0.374444 -0.184640 0.693894 0.631826 -0.206445 -0.068851 -0.246673 -0.020283 0.211092 0.213999 -0.053256 0.153549 0.078765 0.657022 -0.392431 0.259617 0.559294 -0.260303 0.235523 -0.265131 -0.556407 0.496924 0.710898 -0.298893 -0.256870 0.423159 -0.706956 -0.472333 -0.504228 -0.038221 0.079506 0.112603 -0.221723 -0.173857 -0.768545 0.127698 -0.589491 -0.230280 -0.175706 0.066596 -0.490400 -0.602353 0.064094 0.429129 -0.015633 -0.021208 0.489656 -0.418614 -0.638767 0.114934 -1.016330 -0.028830 0.748807 -0.134301 -0.467043 -0.258330 -0.260717 0.242130 -0.371101 -0.319954 -0.191641 -0.263626 -0.447990 -0.656785 0.796916 0.612831 0.533435 -0.203129 -0.366392 0.472041 -0.190262 0.314462 0.699223 0.094743 -0.187888 0.626995 1.121477 0.360678 0.415538 0.286446 0.201789 -0.845422 0.760544 0.552336 0.528669 0.433363 
9 -0.034028 0.035063 -0.010990 -0.053702 -0.061684 0.019186 0.032378 0.037561 0.076410 0.117423 0.190569 0.042488 0.292376 -0.000203 0.065028 -0.040271 0.260375 -0.315535 0.109757 0.003166 0.225507 -0.129103 -0.072223 -0.026713 0.345727 -0.028830 0.229678 0.014731 -0.382152 0.363175 -0.168824 0.104682 0.324065 0.577528 -0.362619 -0.159386 0.707115 0.269956 0.295442 -0.440012 -0.261175 -0.263465 -0.011033 -0.419724 -0.354312 0.093078 0.004521 -0.239399 -0.100516 0.329100 -0.187576 0.490799 0.200600 0.594629 0.170930 0.327938 -0.388343 -0.842141 -0.061333 0.070111 0.274712 0.313889 0.398917 0.402066 0.912812 -0.089058 -0.659466 -0.197933 0.031069 -0.333653 0.634777 -0.118148 -0.267969 -0.297336 0.166346 -0.190241 -0.130287 -0.044290 -0.061135 -0.429796 -0.013376 0.087444 -0.165846 -0.181779 0.176020 -0.354004 0.371522 -0.428305 -0.975965 -0.246184 -0.070596 0.362939 0.140719 -0.453918 0.034973 0.447908 -0.741483 -1.001593 -0.422867 0.514871 0.127451 -0.041372 -0.679152 -0.676120 0.313244 0.063762 0.529463 0.237639 0.164189 -0.390727 -0.166884 0.033876 0.240520 0.735434 -0.271193 -0.459548 -0.231781 -0.622310 -0.551870 -0.249621 0.697297 0.104167 -0.024566 -0.365625 0.231295 0.389128 0.246598 -0.017143 
12 -0.037130 0.068230 0.046408 0.036703 0.018810 0.054035 -0.081217 -0.015621 -0.062700 -0.055099 -0.027941 -0.112089 0.276655 0.141748 0.024295 -0.185757 0.156226 -0.196018 0.014023 -0.055825 -0.187047 -0.152928 0.038724 -0.208975 -0.159989 0.120501 -0.055553 0.207092 0.145451 0.018247 -0.027079 0.135072 -0.011777 -0.033021 -0.109376 0.183107 0.181329 -0.151684 0.135393 0.317935 0.089037 -0.451448 0.125153 -0.263625 -0.074460 -0.224683 -0.040889 0.139324 -0.009644 0.252354 -0.443134 -0.169090 -0.477061 0.025572 -0.064595 0.342498 -0.250441 -0.269061 0.177593 -0.283238 0.355071 0.653995 0.353370 0.184034 -0.013780 -0.074807 -0.290915 0.244548 -0.580485 -0.134016 0.070433 -0.372401 0.136428 -0.187756 0.587189 -0.915996 -0.309136 -0.433223 -0.150626 -0.098851 0.038412 0.724599 -0.445185 -0.169474 -0.391802 0.264576 0.234295 0.155133 -0.402022 -0.162190 -0.180022 0.557761 0.279571 0.402498 -0.166578 0.655249 -0.528669 -0.350785 -0.912438 -0.559812 -0.090503 0.086372 0.563623 -0.322356 -0.577416 0.289765 0.117301 -0.195357 -0.257131 0.244071 -0.420152 0.690775 -0.495930 -0.069198 -0.116051 -0.228922 0.346376 -0.896726 -0.172021 0.009526 -0.309050 0.554374 -0.633972 -0.602381 -0.129227 -0.018008 0.884789 -0.588089 
13 -0.176912 0.304276 0.034951 0.061585 -0.041415 -0.012988 0.039873 0.104477 -0.143497 -0.145353 -0.163298 0.041558 0.446287 -0.020360 0.356165 -0.175942 0.035794 -0.093103 0.320680 0.361887 0.033205 -0.040920 -0.306969 -0.108650 0.231652 0.039386 -0.284839 0.302624 0.435140 -0.351861 -0.132343 0.231736 0.200416 -0.327689 -0.505366 0.147729 0.231339 -0.148666 -0.385915 -0.052366 0.002328 -0.161098 0.375493 -0.057839 0.143099 -0.209261 0.388244 0.168956 -0.059187 0.122346 -0.099543 0.251644 0.163478 0.051422 0.057995 0.052658 0.163113 0.180432 0.438173 -0.175195 0.084556 0.172760 -0.354375 0.259957 0.833148 -0.400705 -0.260666 0.555881 -0.393731 -0.324852 -0.393015 -0.217446 -0.183002 -0.355363 0.374755 -0.255331 -0.119368 -0.273866 -0.032861 -0.462443 -0.353523 0.267695 -0.622172 0.001954 -0.907869 0.596951 -0.113386 -0.251262 -0.165682 -0.067632 -0.462862 0.368931 -1.005765 0.329263 0.949487 0.352047 0.081569 -0.945508 -1.086926 0.397342 0.253646 0.155724 -0.196687 -0.868699 0.110008 0.894960 -0.264874 0.085245 0.503514 -0.024247 -0.495909 0.387594 -0.335416 0.513107 -0.363009 -0.302211 0.015578 -1.373172 0.109043 -0.366787 0.064287 0.275140 -0.840130 -0.652102 0.749232 0.039584 0.386428 -0.014638 
15 -0.332710 0.521440 0.018921 0.089613 -0.050149 -0.100788 -0.002985 0.088348 0.041292 -0.072985 -0.102914 0.065152 0.363703 0.053130 0.110399 -0.237072 0.030752 -0.227212 0.146979 -0.098523 -0.238925 0.199853 -0.258660 0.028005 0.071441 -0.269199 0.344880 0.113115 -0.000551 0.358350 0.139141 -0.179432 0.252263 0.056868 -0.366260 -0.173649 -0.203531 0.363655 0.156584 -0.776075 0.750371 0.216369 -0.162584 -0.311504 -0.342140 0.153537 0.212403 -0.027769 -0.637067 -0.202560 0.366106 0.226297 0.216635 -0.404080 0.352833 0.301420 -0.441863 -0.187171 1.096877 -0.148893 0.417216 0.024650 -0.472577 -0.031750 0.321281 0.319278 -0.026861 0.157149 -0.379341 -0.022034 -0.123126 0.005962 0.512884 -0.259514 -0.264670 -0.249797 -0.299428 0.260119 -0.651243 -0.233906 0.467264 -0.163686 -0.318550 -0.983179 -0.377055 0.420143 -0.255986 0.189010 0.590539 0.304921 -0.575589 -0.316762 0.332124 0.210780 0.247656 0.163271 -0.682231 0.561964 -0.148946 -0.345091 -0.247464 0.492204 -0.054966 0.240238 -0.379825 0.708847 0.618573 0.466233 -0.723140 0.325889 -0.135130 0.104159 -1.137674 0.632933 0.178501 0.215874 -0.593828 -0.547035 0.939721 -0.432067 0.144449 0.565813 0.015549 -0.883782 -0.084100 0.500707 -0.892885 -0.331811 
16 0.089016 -0.091212 0.002874 0.006490 0.032680 -0.028415 0.029837 -0.001189 -0.005932 -0.075622 -0.109665 0.001583 0.019952 -0.009688 0.078405 -0.110792 -0.021675 0.082060 0.159675 0.026632 -0.006218 0.079008 0.069198 -0.122949 -0.277712 0.062525 0.082536 0.160917 0.139101 -0.146881 0.293160 0.363435 0.252179 -0.011677 -0.326726 0.359846 -0.403584 -0.179102 -0.258458 -0.261215 0.185409 -0.152029 -0.153803 -0.185792 0.147366 0.356228 -0.494838 0.123326 0.092832 0.521953 0.359064 0.041636 0.152770 -0.109554 -0.216412 0.550299 -0.480090 -0.089088 0.018313 0.134886 0.225853 -0.280511 -0.003147 -0.411955 -0.039234 0.115496 -0.477767 0.172342 -0.510430 0.430651 0.479685 -0.392619 -0.048233 0.451550 0.356328 -0.343031 -0.292221 0.142345 -0.037145 -0.309263 0.029991 0.071524 -0.061869 -0.152890 0.195421 -0.060466 0.410384 -0.327733 -0.323721 -0.898986 -0.778581 -0.334908 -0.109804 -0.211795 0.244890 -0.612941 -0.137376 -0.517857 0.123051 -0.342107 -0.040606 0.129340 -0.335890 -0.191183 -0.525227 0.012479 0.644290 0.185633 0.357287 -0.053697 0.365824 -0.773825 0.842713 0.367941 0.296660 -0.086609 -0.270789 0.210081 0.368094 0.281137 0.452090 -0.342980 0.162133 -0.085721 -0.144756 0.155622 0.130888 0.578392 
4 -0.403403 0.633017 0.027884 0.039595 -0.033471 -0.023477 0.032481 0.096004 0.052617 0.034828 -0.078253 -0.103054 0.357151 0.059093 -0.074497 -0.169688 0.349442 -0.195034 0.057297 0.008471 0.295721 -0.368811 0.016241 -0.319945 0.108366 0.363654 0.479243 -0.161044 -0.412191 -0.048093 -0.198628 -0.044785 -0.486269 -0.010023 0.034814 0.180434 0.051410 0.164786 0.190318 0.078828 -0.521018 -0.018800 -0.339109 -0.214082 -0.445949 0.531441 -0.250169 0.170335 -0.412422 -0.115468 -0.000726 -0.268807 -0.111389 0.170482 0.103568 -0.133940 -0.001566 -0.911626 -0.090335 0.211785 0.013995 -0.551236 0.132686 -0.148382 -0.766988 -0.288193 -0.333230 -0.422397 -0.155770 0.503392 0.556035 -0.368409 0.230092 0.121412 -0.215745 0.087247 -0.118813 -0.658000 0.347634 0.165667 -0.001675 0.632322 0.581120 -0.086437 0.601995 -0.072210 1.005148 -0.272908 -0.549872 0.006030 -0.230458 0.383863 0.658134 -0.709107 -0.029634 0.100004 0.272059 -0.218798 0.089027 0.352034 0.379294 -0.363657 -0.439159 0.430223 -0.646101 -0.971338 0.740285 0.516563 -0.074265 -0.910969 0.122637 -1.076800 0.525997 0.230681 -0.039736 0.337997 0.019760 0.031470 -0.951537 0.248040 -0.045902 -0.048235 0.301915 0.616827 -0.665451 -0.142705 0.003996 -0.423181 
5 -0.433904 0.674272 -0.026177 0.050872 0.040355 0.006625 -0.103036 0.141871 0.037944 0.002301 -0.098975 -0.024975 0.128109 0.203846 -0.104200 -0.209004 0.147428 -0.353376 0.022794 -0.104107 0.043979 -0.130665 0.280890 -0.096880 -0.343163 0.122902 0.274003 -0.120457 0.234443 0.268361 -0.166588 0.202041 -0.316512 0.215582 -0.128563 0.136008 0.044693 -0.169237 -0.167465 0.036695 -0.099343 -0.117116 -0.002213 -0.221935 -0.348570 0.264709 -0.441477 0.284819 -0.080825 0.470022 0.021625 0.202992 -0.143113 0.189682 -0.257542 0.473667 -0.036968 -0.494473 0.149866 0.207479 0.513289 0.232593 0.338059 -0.053189 -0.193328 0.278554 -0.175948 -0.105631 -0.431962 0.542037 0.978360 -0.400434 0.137392 0.125225 0.689106 -0.612632 -0.404793 -0.368225 0.196072 0.003194 0.253455 0.818469 0.106564 -0.359055 0.276919 -0.704485 0.655712 -0.348524 -1.220745 -0.239177 -0.235337 0.734635 0.875385 -0.516720 -0.793824 0.174845 -0.116204 0.158591 -0.666425 -0.440829 0.237467 0.148739 0.069886 0.198084 0.048054 0.064944 -0.010519 -0.310791 -0.855271 -0.162408 -0.147319 -0.296716 0.101953 0.232642 -0.184705 -0.190693 0.090455 -0.248399 -0.170079 -0.201544 0.491813 -0.399317 0.310869 0.153978 -0.514632 -0.378111 0.242971 -0.321666 
7 -0.490127 0.756455 -0.068533 0.043302 -0.004000 -0.084562 0.155460 0.244835 0.046916 0.027843 -0.017082 0.029957 -0.150394 -0.113328 0.000575 0.116019 0.197987 -0.063467 -0.002312 0.182484 0.197326 0.027246 0.007351 0.160823 -0.166628 0.236896 -0.267879 0.059752 0.023406 0.507105 -0.094716 -0.093361 -0.137743 0.249694 0.355819 -0.399943 0.651209 -0.275699 -0.238458 0.320443 -0.464312 -0.115239 0.309188 0.002805 -0.161004 -0.200606 -0.187407 -0.198443 0.187583 0.560574 -0.487993 0.220857 -0.438667 0.438695 -0.121189 0.550761 0.073236 0.008584 -0.263395 0.194581 0.345890 0.652442 0.735178 0.526114 0.159210 -0.044359 -0.187948 0.211765 0.111513 -0.189100 0.672212 0.320437 -0.067930 0.163343 0.604756 -0.462680 0.180090 -0.366566 0.431012 0.023884 -0.147411 0.896565 -0.312104 0.091228 0.281820 -0.285315 0.041843 0.000652 -0.938102 0.164622 -0.177292 0.884716 0.064813 -0.166503 -0.876355 0.650943 0.149614 0.106544 -0.715950 0.136627 0.085090 -0.204031 0.605373 -0.298023 0.385901 -0.148201 -0.577996 -0.458664 -0.734445 -0.356947 -0.428507 0.314869 -0.270054 0.045851 -0.589846 -0.152003 0.289807 -0.292724 -0.799043 0.010897 0.120857 -0.319147 0.287278 0.341208 -0.213500 -0.501203 0.635024 -0.294682 
29 -0.752766 1.046044 0.022540 0.122533 -0.063645 0.042614 0.031569 0.197028 0.017861 0.052597 -0.015979 -0.059045 0.097954 0.127632 -0.101098 0.034412 0.134049 -0.205965 -0.186660 -0.033166 0.234400 -0.293323 -0.014066 -0.004107 0.449772 -0.001132 -0.114856 0.087667 -0.238225 0.122325 -0.416870 -0.047906 0.047501 0.350869 0.083852 0.210148 -0.487084 -0.244942 -0.038971 0.240196 -0.035381 0.445253 0.113225 0.205972 0.241101 0.721984 -0.308125 -0.290649 0.430712 0.118717 -0.067137 -0.303133 0.371970 0.080569 -0.177550 0.111159 -0.240416 0.017836 -0.476239 -0.108408 -0.120367 -0.561871 0.205218 0.521551 0.464632 0.422578 -0.169899 -0.358389 -0.149391 0.185940 -0.006299 0.313385 0.294095 0.398986 -0.658365 -0.083621 -0.192739 0.088426 0.270871 -0.000217 -0.189583 -0.445187 0.188676 0.316973 0.539643 -0.116410 -0.321164 0.513221 0.478286 -0.658132 0.446760 0.338173 -0.054800 -0.104944 -0.614656 -0.532563 -0.060184 0.104440 0.419878 0.276093 0.339193 -0.535035 -1.038211 0.004818 -0.144858 -0.959037 0.638414 -0.080890 1.023119 -0.672802 0.095944 -0.539539 0.345463 -0.354618 0.426428 0.390931 -0.232601 1.340802 0.211737 -0.235190 -0.077187 0.555712 0.901994 -1.060418 0.446367 0.155326 0.013460 -0.050085 
19 -0.174163 0.237790 -0.008215 0.032285 0.003339 -0.022000 -0.028654 0.025744 -0.012254 0.025839 0.007208 -0.014707 0.087186 0.004267 -0.091175 0.010873 -0.009109 0.045213 -0.200762 -0.189468 0.038382 -0.203832 0.122552 -0.092310 0.109734 0.118720 0.124574 -0.244945 0.058591 0.015407 -0.222137 0.095055 -0.366371 0.119784 0.112609 -0.041927 0.226325 -0.200068 0.262727 -0.221671 -0.226973 0.148233 0.110451 -0.169103 -0.421283 0.212359 0.259969 0.044426 -0.364607 -0.280339 0.046438 0.097557 0.022877 -0.018068 0.305638 -0.444852 0.101668 0.149391 0.288047 0.049711 0.314762 -0.387844 -0.423009 0.085297 -0.121696 0.284579 -0.080888 0.140389 -0.141358 0.074357 0.644228 0.083207 0.334888 -0.355106 0.327437 0.183007 0.112891 -0.453663 -0.073422 -0.390906 0.101641 0.536925 0.175515 -0.437579 0.273466 -0.371906 0.265282 -0.215381 -0.666934 0.208198 -0.254321 0.521202 -0.270144 -0.684688 -0.558227 -0.000885 -0.266296 0.107773 -0.201592 0.480496 0.404322 0.809183 -0.727499 0.239160 -0.037381 0.454362 -0.039447 0.798791 -0.283491 -0.513182 -0.775287 0.185275 0.054083 0.494559 -0.090070 0.191450 -1.014907 -0.115289 -0.067936 -0.167969 0.869321 -0.464599 -0.803411 0.287806 0.084500 -0.107872 -0.160304 -0.248242 
14 -0.468171 0.694791 0.002907 0.114040 -0.029353 0.040586 0.110618 0.239673 -0.034271 -0.024700 -0.043058 0.112201 0.323363 0.035672 0.011455 -0.201796 -0.028481 -0.068601 0.055627 -0.117054 -0.235396 0.013257 0.087646 -0.094085 -0.309151 0.105338 0.017359 0.005210 -0.517790 -0.631200 0.291792 0.573436 0.077070 0.123488 -0.027258 -0.335682 0.033898 0.206132 0.328432 0.128920 -0.342490 -0.232428 -0.053397 0.077441 0.047980 -0.418005 -0.072427 0.096846 -0.348367 -0.287367 -0.400805 -0.207460 0.214266 0.288067 0.361007 0.047121 -0.276750 0.049092 0.308751 0.162679 -0.518765 -0.188597 0.118393 -0.482546 -0.446822 0.251371 0.117402 -0.124342 -0.262775 -0.943576 0.102370 0.123576 0.247126 -0.273921 -0.068351 0.401170 0.570816 -0.231624 -0.271142 0.203497 0.414147 -0.402333 0.317272 0.234437 -0.585489 0.067230 -0.041993 -0.349142 0.677598 1.045835 0.809731 -0.069296 0.688314 -0.092633 -0.223849 0.844527 0.101821 0.476169 0.338165 -0.388617 -0.029786 0.521625 0.177152 -0.526715 -0.515500 0.033577 0.463656 0.136893 -0.398672 0.250057 -0.151865 0.743223 -1.128009 0.334431 -0.366783 -0.170217 0.327740 -0.131292 -1.006796 0.491328 -1.074442 0.089352 -0.472026 -0.212591 -0.749386 -0.068214 -0.301876 0.015247 
20 -0.832825 1.209994 -0.046734 0.055989 -0.151364 -0.001175 0.068495 0.102398 -0.174428 -0.164066 -0.030029 -0.019955 0.224094 -0.015552 0.436039 0.032024 -0.218038 0.269036 -0.041055 0.528988 0.042728 0.287105 -0.323345 0.366095 -0.059228 0.290827 -0.048070 -0.253091 -0.002276 -0.166799 0.189407 0.024910 -0.321876 -0.603954 0.470350 -0.395792 -0.260601 0.402341 -0.640589 0.323358 -0.126059 0.157945 -0.421120 -0.297480 -0.200560 0.321740 0.116293 0.051556 -0.704549 -0.293374 0.525585 -0.279316 -0.531141 0.113169 0.086698 -0.103165 0.615228 -0.320715 0.306102 0.270139 -0.113899 -0.367398 -0.873095 -0.281315 -0.583490 -0.372395 0.487041 0.162660 0.057136 0.730403 -0.221992 0.063044 -0.138072 0.140556 -0.045148 0.004584 0.110877 -0.301542 0.200344 0.474512 -0.220249 0.885006 -0.069204 -0.400680 0.275266 0.479210 0.279649 -0.296307 -0.189226 0.745984 -0.562191 0.738293 -0.448970 -0.227417 0.776591 0.199350 0.670217 0.295898 0.415565 -0.076468 0.796967 -0.255307 0.014298 0.527917 0.439678 -0.848990 0.127880 0.515772 0.097214 -0.477376 0.331364 -0.281512 -0.222469 -0.026729 0.079264 0.412586 0.747324 -0.192783 0.892073 0.683928 0.074251 0.107111 -0.072812 1.025924 -0.065039 -0.081637 0.068041 0.007904 
28 -0.378548 0.724170 0.015165 0.067408 -0.029385 0.017388 0.054090 0.094089 -0.051024 -0.006940 0.041913 -0.080191 0.126073 0.001350 0.147492 0.013118 0.065394 0.103448 -0.063408 0.155035 -0.089831 0.064289 0.079238 -0.013830 -0.131399 -0.007732 -0.225009 0.113840 -0.194405 -0.038339 0.176791 0.332342 0.254962 0.063347 0.231105 -0.127904 -0.270888 0.270442 0.301707 0.260405 0.131679 -0.299342 0.340299 -0.189463 -0.332224 -0.266192 0.306546 -0.286195 -0.464583 -0.046659 -0.050592 -0.302156 -0.226928 -0.325715 -0.175405 -0.128934 0.084073 0.478292 -0.357376 -0.210632 -0.421684 0.340180 -0.175582 -0.725514 -0.710982 0.407552 -0.024896 0.120510 0.388287 0.701725 0.301456 0.282233 0.237604 0.115939 0.018266 -0.122060 0.575809 0.056508 0.007691 0.186661 0.270003 0.276376 -0.542768 -0.298033 -0.020184 0.297565 0.197704 -0.453191 -0.049610 0.354019 -0.117138 -0.549039 -0.059564 0.021524 0.174082 -0.688350 0.108233 0.954772 0.800372 -0.699678 0.405923 0.732856 -0.192137 0.539175 -0.581074 0.187770 0.322454 0.460650 -0.081476 0.773178 0.247321 0.007411 0.776504 -0.588793 -0.140719 0.701809 0.084801 -0.007138 0.756060 0.522070 0.094853 -0.279362 -0.694499 1.030067 -0.205138 0.772872 -0.385374 -0.858486 
31 -0.438751 0.667955 -0.040015 0.052036 0.006068 -0.033153 0.072923 0.108776 0.003793 -0.030852 0.097758 -0.193530 0.191714 -0.014245 0.190188 -0.039630 0.194441 0.135989 -0.128192 0.233443 0.072639 0.024601 0.164770 -0.191191 -0.235447 0.311972 0.326679 0.221972 -0.428016 -0.126381 0.277210 0.188593 0.126287 -0.221679 0.515669 -0.081921 -0.589572 0.401506 0.388980 0.190602 0.169918 -0.403113 -0.362444 -0.378666 -0.294428 -0.034979 -0.053091 -0.251614 -0.792588 -0.035442 0.424876 -0.608311 -0.601068 -0.410147 0.199941 0.130162 -0.217289 -0.249299 0.287901 -0.063534 -0.086431 -0.093081 -0.302978 -0.820003 -0.928684 0.191183 0.206587 0.302476 -0.371435 0.592705 0.326977 0.051435 0.049621 0.359411 -0.187564 -0.425735 0.392973 -0.078405 0.052155 0.252063 0.473020 0.780071 -0.344118 -0.500838 0.304073 0.658639 0.216895 0.003415 0.011554 0.306406 -0.814014 -0.454074 0.333222 -0.020137 0.744102 -0.112180 -0.197861 0.346667 0.771740 -0.673300 0.189948 0.468425 0.254265 0.604435 -0.586552 -0.271155 0.819537 0.492958 -0.187089 0.308373 0.326911 -0.205948 0.061578 -0.380528 0.240084 0.732872 0.147321 -0.378905 0.339444 0.923464 -0.589298 0.210987 -0.297610 0.817525 -0.628880 0.445131 -0.334669 -0.216496 
23 -0.436572 0.709365 0.030766 0.114411 -0.078878 0.015078 -0.017376 0.123405 -0.090274 -0.050015 -0.081955 -0.056223 0.309990 0.068315 0.174276 -0.102015 -0.032150 -0.109487 -0.041664 -0.125141 -0.332026 0.157813 -0.016078 0.073959 -0.161443 -0.141675 -0.305582 0.126744 -0.021218 0.105563 0.078987 0.234933 0.327789 0.451537 0.104577 -0.249934 -0.332893 0.147379 0.332471 0.112408 0.346852 -0.008832 0.612080 -0.062384 -0.354445 -0.117825 0.290544 -0.219052 -0.138627 0.004747 -0.180244 0.012369 0.116724 -0.209366 -0.244591 -0.176196 -0.111828 0.828322 -0.421261 -0.157086 -0.340637 0.552781 0.046725 -0.616728 -0.399435 0.548974 -0.212207 -0.013951 0.761439 0.729850 0.328513 0.123866 0.468868 -0.164586 0.220236 -0.129061 0.365866 0.125543 -0.092328 -0.110010 0.145376 -0.151998 -0.459029 -0.289675 -0.550142 -0.042002 0.156421 -0.269121 -0.079471 0.044418 0.481964 -0.670690 0.228243 0.231947 -0.359645 -0.891822 0.025857 1.294161 0.516223 -0.678043 0.086610 0.737605 -0.232066 0.330911 -0.486137 0.787376 0.036216 0.079352 -0.334757 1.135641 0.420044 0.063503 0.508439 -0.683636 -0.181234 0.283568 -0.211073 0.344936 0.604241 0.001589 0.283016 -0.403218 -0.587618 0.367499 0.067761 0.823878 -0.219404 -0.678910 
17 -0.224832 0.527711 0.024941 0.054464 -0.079853 -0.016415 0.148633 0.347387 -0.107363 -0.027016 -0.088544 0.018522 0.525829 -0.117400 0.270941 -0.182885 0.508979 -0.100389 0.267342 0.296182 0.221224 -0.233214 -0.379005 -0.143872 -0.233312 0.471215 -0.692900 0.272104 -0.391675 0.178811 0.318546 0.410688 0.499751 0.331886 -0.156360 -0.114355 0.621440 -0.149861 -0.107788 -0.043247 -0.365083 -0.083312 0.597694 -0.075856 -0.336505 -0.503389 0.202689 -0.378349 -0.088669 0.115505 -0.596944 0.009180 0.024215 0.293165 -0.244274 0.035712 0.156724 1.043644 -0.518516 -0.151007 -0.539636 0.292255 0.137943 0.116311 0.163873 0.142365 -0.545947 0.363843 0.330799 -0.513551 0.627462 0.582509 0.005476 -0.063367 0.537633 0.136863 0.880680 -0.187313 0.051323 -0.066821 -0.355086 -0.300522 -0.750390 0.066855 -0.047540 0.292279 -0.141722 -0.465504 -0.146227 0.629250 0.105490 0.097586 -0.963909 0.125202 -0.452626 0.120100 0.606757 -0.143953 0.272303 0.302116 0.356117 0.547690 -0.259024 -0.686917 -0.202460 0.431274 -0.423643 0.163051 0.721195 -0.016862 -0.498866 0.715986 0.603252 0.341174 -0.367834 0.226379 0.011742 0.485658 -0.259140 0.042540 0.386796 -0.460164 -1.103212 0.296520 0.220471 0.090940 0.023671 -0.045510 
24 -0.378702 0.679889 0.028606 0.069352 -0.012080 -0.069545 0.037045 0.116653 -0.008566 -0.072436 -0.055326 -0.051188 0.373386 -0.019757 0.153609 -0.161287 0.350080 -0.019150 0.122180 0.268986 0.230767 -0.041396 -0.081453 -0.162481 -0.045868 0.407488 -0.119402 0.271462 -0.158732 0.081334 0.317834 -0.067144 0.234416 -0.208029 -0.008362 -0.139311 0.269041 0.069044 0.249023 -0.166942 -0.084090 0.078742 -0.105295 -0.073925 -0.421495 -0.005747 0.157009 -0.273305 0.123498 0.348163 0.325926 -0.168844 0.231100 -0.391355 0.291478 0.197604 -0.086364 0.086526 0.315997 0.070028 -0.080411 -0.242978 -0.112237 -0.061763 0.375038 0.784859 0.253831 0.470807 -0.192211 -0.317997 0.189853 1.010121 -0.150050 0.671729 -0.260898 -0.124086 0.795035 0.544820 0.066872 -0.023399 0.602271 -0.590943 -0.301560 0.093637 0.168040 0.210661 -1.014373 0.493869 0.766343 0.342987 -0.476976 -0.321186 -0.199755 0.429738 -0.514889 0.446793 -0.142757 -0.155183 0.371627 -0.213272 -0.155031 0.634720 0.060322 -0.505670 0.555279 0.414626 -0.190378 -0.161961 -0.475248 0.219058 -0.133727 -0.139328 -0.620728 0.133558 -0.319677 0.177732 -0.547489 -0.238105 -0.021822 -0.042450 -0.663004 0.490766 0.112711 -0.333446 -0.871492 -0.752901 -0.918944 -0.024379 
30 -0.321811 0.486675 0.008487 0.111514 0.056551 -0.020226 0.074662 0.113874 -0.142558 -0.141649 -0.136541 -0.163152 0.331653 -0.030077 0.204882 -0.052156 0.050404 -0.093519 0.013063 0.148093 -0.135974 0.153344 -0.110347 0.029008 0.089842 0.292565 -0.185083 0.293014 -0.201679 -0.395275 0.010585 0.200575 0.070234 0.264046 0.148298 -0.099396 0.271677 -0.195634 -0.005164 0.058114 -0.249953 0.057947 -0.307651 -0.027567 -0.072888 0.020482 0.360613 0.063212 -0.080527 0.310470 0.210696 -0.032002 0.248484 0.175957 0.642055 -0.331896 0.063696 0.383428 0.528388 -0.124161 -0.411129 -0.545311 -0.426358 -0.371524 0.393224 0.204214 0.671423 0.748415 -0.169870 -0.288316 -0.126306 -0.022977 -0.664947 -0.146524 -0.012648 0.218334 0.363827 -0.163436 0.007332 -0.159975 0.574395 0.056827 0.012965 0.285384 0.315087 -0.630058 -0.693129 0.409462 0.113764 -0.499936 0.317601 -0.025640 -0.279429 0.365956 0.388740 -0.062181 -0.281181 -0.835542 -0.360029 0.287764 -0.072579 0.522338 0.276616 0.040899 1.245360 -0.138805 -0.640265 -0.526019 0.154638 0.862698 -0.697057 0.145450 0.324600 -0.615542 -0.068895 -0.548140 -0.210043 0.374088 -0.639315 0.160320 0.273984 -0.472428 -0.240391 0.809472 -0.091210 -0.851858 0.831898 1.087935 
32 -0.422394 0.648176 0.022051 0.053325 -0.014603 0.013829 -0.017968 0.084690 -0.018034 -0.083300 -0.053765 0.020940 0.171408 0.026637 0.012217 -0.174220 0.246373 -0.254096 0.093829 -0.067009 0.157356 -0.182673 -0.113930 -0.209705 -0.317067 0.173153 0.088839 0.192523 -0.090752 0.094250 0.171927 -0.240181 0.278865 0.188298 -0.059147 0.249288 -0.284658 -0.099683 0.062923 -0.239652 0.062118 0.142555 0.001500 0.177281 0.059620 -0.598299 -0.247596 -0.129335 -0.298491 -0.087768 0.010760 -0.070060 -0.009777 0.099446 -0.222971 -0.269561 0.164212 0.820372 -0.019401 -0.256848 -0.373137 -0.013368 0.051630 -0.127295 -0.081604 -0.238825 0.187777 0.082244 -0.049540 -0.198739 0.403496 -0.556368 -0.181322 -0.540539 0.254127 0.260064 0.246030 -0.234631 0.048782 0.161487 -0.269862 -0.200033 -0.426465 -0.289454 0.319170 0.025635 -0.471740 0.154260 -0.292944 0.454893 0.426777 -0.281028 0.047696 0.223290 0.313968 -0.077706 0.600833 -0.291411 0.056625 0.557320 0.165793 0.321676 0.728558 0.497076 0.325325 0.685503 -0.955485 -0.703919 0.866186 0.093082 -0.501399 0.700199 0.455586 0.219529 0.357597 0.002161 0.357588 0.855626 -0.450890 -0.641275 0.539884 -0.833298 -0.376197 0.701035 0.655888 -0.004653 -0.300313 1.501332 
36 -0.651822 0.870036 0.028263 0.155313 -0.103964 -0.138479 0.227158 0.216441 -0.040120 -0.012726 -0.071179 -0.175691 0.520553 -0.235690 0.209278 -0.070664 0.390357 -0.145891 0.214516 0.074340 -0.188625 0.094530 -0.693355 0.047591 0.044499 0.293602 -0.658484 0.437395 -0.324514 0.485020 0.107803 -0.366864 0.098501 0.010533 0.018670 -0.506940 0.828857 -0.132685 -0.213040 0.099564 0.034897 0.094938 0.440300 -0.111533 -0.264822 -0.386880 0.344046 -0.308869 0.020482 -0.032417 -0.925545 -0.087550 -0.362012 -0.072431 0.126325 0.211218 0.014077 0.781370 0.205609 -0.162779 0.042618 0.507971 0.307221 0.704285 0.273796 -0.268765 -0.117174 0.677495 0.059129 -0.613908 -0.230525 0.578656 0.148358 -0.105845 0.217136 -0.003519 0.383918 -0.434649 0.040733 0.077916 -0.162784 0.296991 -0.375036 0.250703 -0.063750 0.431308 -0.273019 0.301667 0.159073 0.276307 -0.366154 0.461606 -0.438207 0.751485 -0.572487 0.573281 0.443587 0.006144 -0.891682 0.221362 -0.118065 -0.467867 0.795362 -0.261180 -0.060199 -0.118027 -0.727374 -0.450141 -0.236357 0.030927 -0.653596 0.325562 -0.327481 0.097899 -0.435947 0.074583 0.425788 -0.022449 -0.613610 -0.001231 0.112650 0.146760 -0.120048 0.129673 -0.061596 -0.520366 0.656296 -0.664492 
37 -0.133427 0.179697 -0.041846 0.042351 -0.092917 -0.081336 0.089988 0.253361 0.038758 0.039947 0.026710 0.023749 0.585847 0.001884 0.147572 -0.265492 0.398971 -0.301113 0.084528 0.043070 0.000503 -0.205240 0.003722 -0.310583 -0.143840 0.455885 0.239879 0.578780 -0.573561 0.181534 0.152821 0.217018 0.570781 0.329394 -0.030552 -0.501567 -0.036215 0.237755 0.369908 -0.148672 0.214100 -0.327928 0.056172 -0.297584 -0.216640 -0.352115 -0.626530 -0.612712 0.130351 -0.111521 -0.106373 -0.124337 -0.496852 -0.304641 -0.064310 0.211073 -0.365275 0.633891 0.480524 0.532007 0.111809 0.142738 -0.000316 -0.260191 0.378892 0.020503 0.225563 0.806815 -0.245258 -0.329567 0.574707 0.148444 -0.780674 0.196860 0.708769 0.056359 0.589040 0.190141 0.137367 -0.100881 0.324484 -0.331015 0.384213 0.496113 -0.158784 0.237502 -0.153399 0.106544 0.019151 0.101219 -0.781874 -0.869129 0.462947 0.798514 0.151938 0.168767 0.028513 -0.307071 0.538076 -0.444503 -0.511788 -0.129237 0.372888 -0.230820 0.792553 0.534783 -0.349065 -0.676999 -0.010479 0.761655 0.604689 0.165718 -0.537710 -0.075662 0.202877 -0.104766 0.194597 -0.025037 -0.428986 0.737336 -0.633212 -0.102113 -0.345882 0.060164 -0.301899 -0.338569 -0.150379 0.516502 
33 -0.809671 1.024926 -0.061017 -0.025384 0.093550 0.073478 0.043635 0.127367 -0.006738 -0.065469 0.043435 -0.327317 -0.330132 -0.118107 -0.014255 0.308427 0.273325 -0.466801 0.021362 -0.178972 0.401320 0.241068 0.019483 0.215987 -0.768684 0.241893 0.222852 -0.041679 -0.388635 0.423111 0.159735 -0.424081 0.348315 -0.141097 0.694882 0.150181 -0.647523 0.275998 0.095407 -0.345078 0.339160 0.143582 -0.472130 0.068311 -0.091329 -0.345437 0.160909 0.065265 -0.525408 0.199867 0.487355 -0.437513 -0.207262 -0.176656 0.048573 0.038532 -0.432360 -0.036093 -0.216359 -0.379057 -0.140129 0.541096 0.392309 -0.175575 -0.277514 0.235050 0.243968 -0.597032 0.004091 0.518575 0.196271 -0.047221 0.644802 -0.325889 -0.477611 -0.868405 0.183129 0.329602 0.252749 0.298184 -0.237646 -0.090197 -0.615142 -0.734143 -0.096667 0.283814 -0.158538 0.684857 -0.270670 0.334756 0.408465 -0.629798 0.722594 0.006201 0.140595 0.287193 -0.037479 0.541159 0.603464 -0.680756 -0.075529 0.475837 0.698857 0.523861 -0.423791 0.691086 0.585418 -0.421190 -0.432632 0.293380 0.913138 0.018223 -0.447303 -0.498227 0.496279 -0.068451 0.595854 0.279976 0.181276 -0.004778 -0.152625 0.667003 0.160925 0.117597 -0.026089 0.218817 -0.219613 0.799168 
27 -0.972826 1.408047 -0.103066 0.134287 -0.165291 -0.040315 0.070009 0.287598 0.093464 0.123896 0.112227 0.077203 0.319177 0.129807 0.300873 -0.038665 -0.146688 -0.233169 0.145604 0.244787 -0.241521 0.341014 0.084543 0.110490 0.320121 -0.581010 0.323702 0.004602 0.063006 -0.091937 -0.070123 0.052133 0.011374 0.725345 0.104873 0.115758 -0.138682 0.166740 -0.378843 0.167032 0.375053 -0.045032 -0.295346 0.406873 0.463583 0.052847 -0.099839 0.178100 -0.247891 -0.082553 0.286538 0.589280 0.274103 0.676621 0.083357 0.189005 0.437294 -0.576386 0.123415 -0.206786 -0.354335 0.162051 0.001172 -0.471485 -0.383211 -0.239401 0.377950 -0.216526 0.518941 -0.608066 -0.555854 -0.135592 -0.539022 0.128249 -0.626219 0.576385 -0.466813 0.259212 -0.510958 0.370106 0.593905 -0.043114 -0.198345 -0.383633 0.012470 -0.428091 0.061132 -0.330360 0.340888 0.174527 0.918365 -0.077945 0.260693 -0.351318 0.692436 -0.211269 -0.339629 0.485802 -0.145187 0.458421 -0.629699 -0.194670 0.546209 0.286536 0.411870 -0.787000 -0.381844 -0.086730 -0.346254 0.581049 -0.547543 0.796321 0.318182 -0.365043 0.121775 0.074403 -0.158603 0.478337 0.058710 -0.120861 -0.210187 -0.959213 0.891421 0.365608 -0.098788 0.603559 -0.259883 0.202934 
21 -0.662362 1.047177 0.049036 0.137145 -0.052751 -0.078039 0.163950 0.167314 -0.078449 -0.078209 -0.243813 -0.157376 0.217464 -0.152859 0.183113 -0.115614 0.222837 -0.025709 0.327763 0.003183 -0.337655 0.247700 -0.651323 0.153382 -0.392347 -0.008883 -0.847180 0.257682 -0.044837 0.563899 0.399871 -0.071672 0.193268 0.044483 -0.266312 -0.023382 0.344209 -0.272454 -0.616641 -0.037967 0.405089 0.210653 0.570637 -0.040872 -0.112244 -0.269853 0.259123 -0.028908 -0.029221 0.089184 -0.817142 -0.027054 -0.138445 -0.190214 -0.459569 0.413366 0.075662 1.187623 -0.255325 -0.412744 -0.148037 0.554702 0.247361 0.349253 -0.301261 -0.007556 -0.403270 0.308057 0.181828 0.030567 -0.134737 0.341017 0.653472 0.038073 0.279857 -0.048263 0.028525 -0.215036 -0.243067 0.295163 -0.263623 0.061498 -0.666604 -0.204104 0.100813 0.231437 0.072119 -0.224019 0.233508 0.055878 -0.222914 0.242975 -0.596021 0.507322 -0.780662 -0.396243 0.748785 0.841579 -0.515634 -0.362470 0.059706 -0.165182 0.639853 0.344227 -0.953121 -0.218092 -0.504773 -0.170188 -0.056799 0.290281 -0.566976 0.133423 0.787256 0.054201 -0.161789 0.404120 0.503135 0.941465 0.607005 -0.145648 0.938478 -0.462400 -0.052010 0.525012 -0.037820 -0.017179 0.359077 -0.891866 
22 -0.947873 1.318627 -0.090207 0.117520 -0.156564 0.059455 0.007274 0.230004 -0.066866 -0.061716 0.083608 0.114583 0.472747 0.202325 0.220691 0.003398 -0.199319 -0.426190 -0.128936 0.172238 -0.177540 0.179119 -0.456935 0.548103 0.241457 0.134850 -0.197084 -0.136197 -0.153236 0.054192 -0.272183 -0.004676 -0.110209 0.147312 0.127298 -0.620805 -0.363320 0.334520 -0.636614 0.330386 0.097125 0.612812 -0.087788 -0.176935 -0.149070 0.636075 -0.142354 -0.098305 -0.300983 -0.387839 0.051534 -0.168896 -0.080400 0.366718 -0.084852 0.044561 0.294554 -0.045706 0.491798 0.253824 -0.089171 -0.300274 -0.653039 0.310984 0.392412 -0.018903 0.554139 -0.047263 0.072712 0.484676 -0.311240 0.039725 0.090172 -0.341053 -0.034358 -0.012571 -0.195731 -0.316569 0.063067 0.414348 -0.301296 0.114252 0.399204 -0.091531 0.040719 -0.037369 -0.033959 0.038230 0.197657 0.507272 0.325849 1.213364 0.167870 0.191064 -0.115191 0.204518 0.496896 0.678407 0.250176 -0.294612 0.945606 -0.658138 -0.683591 0.478683 0.941359 -0.929817 0.175616 -0.120735 0.462234 -0.225358 0.408465 -0.147525 -0.851353 -0.131178 0.295046 0.065482 0.954662 0.728805 1.089308 0.124348 0.370046 0.523444 0.253177 -0.208148 0.393892 -0.153147 0.321779 -0.114256 
35 -0.830092 1.290721 0.056550 0.184366 -0.122183 -0.131200 0.083518 0.089824 0.018671 -0.015907 -0.141816 -0.202102 0.295161 -0.004119 0.203927 -0.095943 0.068665 -0.081851 0.194235 0.160642 -0.425397 0.337274 -0.504756 0.057533 0.379655 -0.395598 -0.130297 0.316424 -0.021558 0.338400 -0.051937 -0.608987 -0.172952 0.258590 0.025513 0.088769 0.244918 0.018441 -0.214585 0.191245 0.431041 0.111605 -0.080505 0.173289 0.083857 -0.019593 0.387157 0.074645 -0.198826 0.053050 -0.255831 0.192876 -0.073049 0.050640 0.188924 0.032490 0.303481 -0.084949 0.124265 -0.583844 -0.171186 0.315803 0.179557 0.030258 -0.386648 -0.466356 0.138624 0.171059 0.425908 0.010879 -0.805535 -0.240290 -0.063977 0.047659 -0.642014 0.159845 -0.492429 -0.213924 -0.239507 0.316770 0.374399 0.517594 -0.532046 -0.296836 0.338185 0.027744 -0.127110 0.401794 0.401927 -0.421316 0.244685 -0.039610 0.066588 0.491881 0.467884 -0.376772 -0.116707 0.236867 -0.945249 0.468089 -0.553856 -0.602292 1.186203 0.751131 -0.172425 -0.873802 -0.608196 -0.418084 -0.390660 0.632680 -0.845863 -0.016912 0.757220 -0.721523 -0.098712 0.285533 0.101824 0.309690 -0.238597 -0.458826 0.163842 -0.383012 0.900576 0.718778 -0.045307 0.217338 0.462738 -0.491041 
25 -0.407606 0.549442 0.114516 -0.027166 -0.163222 0.086950 -0.061976 0.086481 -0.067243 -0.076328 -0.196245 0.015318 0.644913 0.280832 0.323332 -0.369510 0.087529 -0.561255 0.430811 0.311119 -0.296206 0.164394 -0.569502 0.073969 0.533683 -0.564834 0.283120 0.317868 -0.272005 0.298547 -0.249828 -0.028146 0.397006 0.481730 -0.659791 0.279414 0.093687 0.395971 -0.289946 -0.533812 0.620809 0.002808 -0.316557 -0.190803 0.018711 -0.020664 0.419382 0.129752 -0.701129 -0.068685 0.140259 0.470020 0.244807 0.305872 0.242209 0.028825 0.153939 -0.472314 0.696769 -0.637231 -0.230229 0.136703 -0.467002 0.011736 0.692069 -0.424689 0.179231 0.021034 -0.163182 -0.109976 -0.614397 -0.801169 -0.347083 -0.627512 -0.524677 -0.028329 -0.816748 -0.087584 -0.604979 0.063334 0.473164 0.114672 -0.630319 -0.881539 0.127095 -0.079652 -0.049208 -0.086704 0.133972 -0.230301 0.254191 -0.053310 0.076123 0.278446 1.431278 -0.137653 -0.794739 -0.494460 -0.772563 0.354483 -0.143118 -0.019825 0.146337 0.570982 0.291411 -0.324196 0.240208 -0.024617 0.337758 0.812759 -0.836958 0.496793 0.385379 -0.127269 0.286976 -0.058410 0.151980 -0.131709 0.644617 -0.661216 0.759389 0.073102 0.131525 0.015838 0.688599 0.759860 0.217134 0.032408 
34 -0.556007 1.052899 0.031423 0.171126 -0.012404 -0.058349 0.085144 0.132155 -0.036899 -0.103610 -0.026576 0.052564 0.434622 0.015918 0.178135 -0.220154 0.038977 -0.334509 0.151642 -0.028357 -0.187081 0.050259 -0.100927 0.070651 0.072152 0.018475 0.096377 0.074051 0.163696 -0.077129 -0.099569 -0.002706 0.115198 -0.087554 -0.440982 -0.447233 -0.197300 0.314102 -0.260581 -0.018122 0.264797 0.134896 0.023192 -0.240129 -0.033745 0.179152 -0.454069 -0.056222 0.244958 -0.340079 0.095272 0.079877 -0.031034 -0.255278 -0.356551 0.011171 0.211559 0.130300 0.655841 0.608247 0.216395 -0.238939 -0.558692 0.028410 0.545230 -0.195129 0.603930 0.277319 -0.084348 0.397987 -0.279408 -0.233471 -0.560669 -0.119683 0.474830 0.461587 -0.206742 0.171153 0.011995 0.226304 -0.043577 -0.512821 1.115119 0.640306 -0.023456 -0.328280 0.042736 -0.321601 0.191186 -0.050540 -0.507111 0.074112 0.402020 0.507524 0.112391 -0.239650 0.640885 0.023766 0.201643 -0.542621 0.310309 -0.915497 -0.316979 0.468669 1.376582 -0.246892 -0.536160 -0.625433 0.255844 0.216938 0.873247 -0.685055 -0.362173 0.184158 0.278014 -0.292301 0.925222 0.217248 0.948844 0.174580 0.404747 -0.069303 0.421895 0.278469 0.059018 -0.640185 -0.251185 0.105285 
38 -0.526410 0.825728 0.056880 0.100113 -0.118889 0.032490 0.159725 0.194079 -0.145617 -0.037702 -0.316535 -0.235580 0.489743 0.086987 0.302276 -0.178907 0.002798 -0.191777 0.308531 0.337690 -0.189966 0.187462 -0.117029 0.096041 0.074062 0.192260 -0.067866 0.336179 -0.234646 -0.052448 -0.090151 0.431817 0.184431 -0.054036 -0.367459 -0.219623 0.278383 0.021397 -0.524712 -0.168701 0.168080 -0.018226 -0.297010 -0.279176 -0.091931 0.390902 0.018278 0.110003 0.339982 0.189154 0.222890 0.067713 0.059233 -0.276666 0.129691 0.119650 0.092355 0.162430 0.533717 0.329492 0.006107 -0.474549 -0.525656 -0.152269 0.618996 0.188151 0.561100 0.666198 -0.350698 0.101492 -0.188273 0.234176 -0.772247 0.491052 0.125574 0.174417 -0.032965 0.283298 0.040964 -0.019063 0.642046 -0.220768 0.639706 0.571801 0.348661 -0.641609 0.032903 -0.100603 0.153444 -0.845050 -0.644403 -0.242368 -0.161781 0.302564 0.110959 -0.317737 -0.253878 -0.523061 -0.139594 -0.472476 -0.311740 -0.158718 -0.211337 0.029114 0.950171 -0.564117 -0.065607 -0.298295 -0.334836 0.722395 0.121504 -0.702391 0.408335 -0.422787 0.004874 -0.326163 -0.001437 0.115301 0.312212 0.575124 0.323160 -0.084780 0.304845 0.445015 -0.482596 -0.816423 0.479731 -0.228791 
39 -0.899372 0.981674 0.086140 -0.000231 -0.295935 0.174272 0.003609 0.339068 -0.216164 0.187575 -0.406794 -0.273323 0.186264 0.208079 0.007924 -0.115765 -0.149931 0.074641 0.188031 0.111557 -0.205938 -0.123169 -0.014748 0.078912 -0.119473 0.060112 0.024838 -0.007701 -0.496585 0.295539 -0.275168 0.716771 -0.093085 -0.421460 -0.334049 0.069246 0.493117 -0.132042 -0.694443 -0.565078 0.282194 -0.026291 -0.237286 -0.109942 0.064056 0.096779 0.288193 0.363082 0.682657 -0.521559 0.047543 0.160360 -0.265309 -0.581003 -0.020891 -0.482088 0.508099 0.626083 0.101291 0.407086 0.099046 -0.402073 -0.670033 0.256795 0.525603 0.061786 0.653869 0.203141 -0.305573 -0.177427 -0.326405 0.406607 -0.660151 0.458884 0.139622 0.471542 -0.253190 0.461604 0.049376 0.025511 0.552980 -0.555102 1.066580 0.551805 0.240452 -0.918161 0.516665 -0.243968 -0.063798 -0.625101 -0.420887 -0.627586 -0.409039 -0.129301 -0.347099 -0.290170 -0.380358 -0.118178 0.010141 -0.433092 -0.894197 0.059467 -0.250886 0.083497 0.658988 -0.180803 -0.208976 -0.040241 -0.940995 0.653384 0.004825 -0.203173 0.492869 -0.573460 0.130282 -0.277052 -0.467009 0.150911 0.425406 0.595492 0.427864 -0.147995 -0.087471 0.250311 -0.261084 -0.874866 0.332506 -0.791158 
